~o
<STREAMINFO> 1 42
<VECSIZE> 42<NULLD><MFCC_E_D_A>
~h "Neutral_UBM_16_64m"
<BEGINHMM>
<NUMSTATES> 3
<STATE> 2
<NUMMIXES> 64
<MIXTURE> 1 1.128943e-002
<MEAN> 42
 6.367379e+000 1.481749e+000 1.898185e+000 -1.031360e+001 -4.379341e+000 3.738660e+000 -5.039032e+000 1.129578e+000 -4.531005e+000 -3.696397e+000 4.762332e+000 -1.849501e+000 4.408177e+000 7.175088e-001 -1.164545e-001 -4.663603e-002 4.372516e-002 -8.174378e-002 7.164955e-002 2.073244e-001 1.606348e-001 1.541087e-002 6.415904e-002 9.707013e-002 -5.330154e-004 5.036231e-002 -3.522640e-002 -4.216886e-003 -6.961397e-002 1.322220e-002 2.646120e-002 8.537866e-002 1.215467e-001 -1.037175e-001 2.723916e-002 -1.184747e-001 9.185538e-002 7.894193e-002 -6.029718e-002 -1.005095e-001 -1.087544e-001 -2.066212e-003
<VARIANCE> 42
 1.215040e+001 1.112796e+002 5.307955e+001 2.849735e+002 6.112646e+001 6.813078e+001 9.179039e+001 9.039289e+001 5.432119e+001 5.665047e+001 7.383424e+001 4.440213e+001 6.312812e+001 9.684398e-003 1.451720e-001 1.149526e+000 7.885001e-001 1.296328e+000 1.301385e+000 1.194214e+000 1.664920e+000 1.686777e+000 1.679399e+000 1.793469e+000 1.869830e+000 1.721898e+000 1.456666e+000 1.593215e-004 3.059593e-002 1.080220e-001 1.170603e-001 1.949752e-001 1.958927e-001 2.459253e-001 2.825168e-001 2.733670e-001 2.792533e-001 2.655358e-001 2.727468e-001 2.509411e-001 2.282959e-001 1.156272e-005
<GCONST> 8.741134e+001
<MIXTURE> 2 1.913209e-002
<MEAN> 42
 -6.342962e-001 -4.886879e+000 9.343805e+000 9.510661e-001 -1.677139e+000 -1.132575e+001 -9.716208e+000 -1.001287e+000 -2.603823e+000 -9.801454e-001 -6.820289e+000 -9.932298e-001 7.370789e+000 6.546296e-001 -1.485101e+000 3.692767e+000 1.112947e+000 2.641270e+000 2.401445e+000 1.210454e+000 1.779013e+000 -8.402990e-001 2.732922e-001 -1.306390e+000 -7.074229e-002 -4.273034e-002 -7.198624e-002 -7.027735e-002 -9.798024e-001 1.231354e-001 -7.282681e-001 -5.076959e-001 2.573041e-001 9.710498e-001 8.535172e-001 3.070879e-002 3.704722e-001 2.875448e-002 7.870308e-001 -1.833717e-001 -7.370547e-001 -1.989651e-002
<VARIANCE> 42
 1.390348e+001 4.033727e+001 5.872763e+001 7.149715e+001 7.518810e+001 5.257277e+001 9.423782e+001 8.521149e+001 7.922452e+001 9.180128e+001 7.101345e+001 8.910386e+001 8.408857e+001 9.836189e-003 3.743085e+000 4.064112e+000 6.655197e+000 6.330476e+000 5.650527e+000 6.711384e+000 7.324279e+000 8.234792e+000 7.625196e+000 8.318686e+000 6.878906e+000 6.582226e+000 5.658580e+000 1.579028e-003 5.185919e-001 9.639723e-001 7.614668e-001 1.085066e+000 1.100260e+000 9.486786e-001 1.006696e+000 1.172253e+000 1.369891e+000 1.253654e+000 1.090999e+000 1.364762e+000 1.000535e+000 2.527393e-004
<GCONST> 1.360143e+002
<MIXTURE> 3 1.635287e-002
<MEAN> 42
 7.594305e-001 -2.168421e+000 4.635546e+000 -1.682131e-001 -2.251029e+000 -7.748049e+000 -6.024268e-001 6.326459e+000 -2.559079e+000 -5.282481e+000 1.715028e+000 -2.551931e-001 2.983757e+000 6.441351e-001 1.210226e-001 1.599888e+000 1.210081e+000 1.504937e+000 -3.126492e-001 1.110483e+000 1.221520e+000 -1.589255e+000 -1.569800e+000 2.518372e-001 2.868820e-001 -4.745548e-002 5.533084e-001 -1.481386e-002 -1.421042e-001 5.470310e-002 2.331069e-001 -3.316730e-001 -4.753267e-002 9.979994e-001 3.866451e-002 -1.042838e+000 2.101961e-001 3.237981e-001 -2.197075e-001 -2.879944e-001 -9.671247e-002 1.004535e-003
<VARIANCE> 42
 2.503354e+001 3.625532e+001 7.741956e+001 8.492242e+001 1.012573e+002 6.331598e+001 8.958020e+001 9.514178e+001 1.010658e+002 8.125802e+001 9.598945e+001 7.343105e+001 7.853914e+001 1.624194e-002 1.729481e+000 3.446856e+000 7.769670e+000 6.036649e+000 7.952556e+000 8.700508e+000 6.820447e+000 1.213322e+001 9.859490e+000 7.921502e+000 5.816638e+000 5.674347e+000 4.759675e+000 3.479029e-004 2.122722e-001 3.663902e-001 7.104174e-001 8.275246e-001 1.208164e+000 9.878349e-001 1.061640e+000 1.296500e+000 1.398735e+000 1.032021e+000 9.257280e-001 8.829111e-001 8.533242e-001 4.239848e-005
<GCONST> 1.318133e+002
<MIXTURE> 4 1.318393e-002
<MEAN> 42
 -2.831602e+001 -5.536926e+000 6.676459e+000 -6.669529e+000 -1.745050e+000 -4.412577e+000 -1.111956e-001 -3.748603e+000 2.919515e-001 -3.144519e+000 -2.241898e-001 -1.500531e+000 2.025063e+000 4.236638e-001 4.255733e+000 1.421852e+000 3.555143e+000 2.421393e+000 6.363651e-001 8.745562e-002 -3.570559e-001 -3.002294e-001 -7.653893e-001 -9.253263e-001 -5.386873e-001 -5.061194e-001 1.881168e-001 2.562713e-002 1.770844e+000 3.962232e-001 6.828208e-001 7.116065e-001 -6.649533e-002 2.564926e-001 -6.229565e-001 -1.561149e-001 -4.402803e-001 -4.248059e-001 -8.165587e-002 -2.347738e-001 -1.003527e-002 1.899109e-002
<VARIANCE> 42
 2.024626e+001 5.204202e+001 5.426306e+001 4.720779e+001 5.247906e+001 4.961309e+001 4.547319e+001 4.290742e+001 3.565080e+001 3.193597e+001 2.707297e+001 2.386771e+001 2.128362e+001 1.198134e-002 4.321251e+000 2.530366e+000 4.342357e+000 3.524868e+000 3.200064e+000 2.883527e+000 2.950092e+000 3.708532e+000 3.707366e+000 3.201132e+000 2.872105e+000 2.383100e+000 2.431677e+000 1.336914e-003 6.158328e-001 5.109866e-001 5.869955e-001 7.692208e-001 7.843253e-001 7.052039e-001 7.017004e-001 8.474171e-001 8.076218e-001 9.203025e-001 9.027818e-001 7.488409e-001 7.470674e-001 1.472316e-004
<GCONST> 1.151189e+002
<MIXTURE> 5 1.517219e-002
<MEAN> 42
 2.725905e-002 -1.120742e+001 9.515908e+000 -1.513676e+000 -5.181284e+000 -8.206861e+000 -1.851544e+001 -9.992005e-001 3.584846e-001 -1.826606e+000 4.158272e-001 -4.999313e+000 1.094759e+001 7.605661e-001 2.751539e+000 -2.100376e+000 -1.784866e+000 -1.623568e+000 -1.292894e+000 9.146259e-001 -2.211497e+000 9.034109e-001 1.017927e+000 2.044417e+000 1.420304e+000 -8.566015e-001 3.644355e-001 5.391468e-002 -1.420464e+000 5.519618e-001 -7.971363e-001 -4.463500e-001 7.108929e-001 7.038549e-001 1.824571e+000 -1.114204e-001 -7.126572e-003 1.324210e-001 1.831209e-001 8.884911e-002 -1.072396e+000 -2.597170e-002
<VARIANCE> 42
 1.508810e+001 3.095758e+001 4.890240e+001 5.464347e+001 4.364328e+001 6.061161e+001 6.375702e+001 9.099638e+001 7.514940e+001 9.184175e+001 8.036444e+001 7.776898e+001 4.532084e+001 7.676035e-003 4.812773e+000 3.383776e+000 6.804867e+000 4.888256e+000 5.605883e+000 6.097857e+000 7.649657e+000 8.252272e+000 7.916582e+000 8.883674e+000 7.872817e+000 6.731030e+000 5.969004e+000 1.383060e-003 7.920364e-001 5.814822e-001 8.925731e-001 1.044259e+000 7.810219e-001 1.212484e+000 9.631643e-001 1.106575e+000 1.171270e+000 1.541020e+000 1.173239e+000 1.298960e+000 8.164072e-001 2.038024e-004
<GCONST> 1.331708e+002
<MIXTURE> 6 1.248462e-002
<MEAN> 42
 -1.131576e+001 -1.173420e+001 -1.828836e+000 -5.686191e+000 7.384191e-001 -3.130955e+000 -4.001429e+000 -4.477293e-001 4.532424e-001 -5.391456e+000 -1.267090e+000 -2.888512e+000 1.196822e+000 3.036817e-002 -3.394078e-002 2.537593e-001 6.471926e-002 1.185827e-001 -1.949125e-002 -4.001795e-001 -2.701039e-001 -1.312073e-001 -1.784279e-002 1.570976e-001 6.590108e-002 8.484064e-002 1.386278e-001 -5.842451e-003 -1.220552e-001 4.511635e-001 2.878658e-003 2.368984e-001 3.371182e-002 1.407074e-001 2.614867e-001 -9.544226e-003 9.554982e-002 8.925195e-002 2.487977e-002 -7.940695e-003 -9.095439e-002 -5.163286e-003
<VARIANCE> 42
 1.147981e+001 3.821507e+001 5.555443e+001 3.767440e+001 5.660220e+001 6.098413e+001 4.824916e+001 5.607850e+001 4.551083e+001 4.260130e+001 4.327881e+001 3.712115e+001 3.100411e+001 3.927513e-003 7.056857e-001 3.228269e+000 1.661458e+000 1.731743e+000 2.218823e+000 2.938658e+000 3.225600e+000 3.352673e+000 2.765727e+000 2.949698e+000 2.783116e+000 2.873168e+000 2.408563e+000 1.154001e-003 1.401878e-001 3.351369e-001 3.410886e-001 3.696316e-001 4.166664e-001 5.821107e-001 5.843869e-001 6.483231e-001 5.925953e-001 6.379236e-001 5.536109e-001 5.672433e-001 5.019745e-001 1.010305e-004
<GCONST> 1.047090e+002
<MIXTURE> 7 1.548503e-002
<MEAN> 42
 1.959279e+000 -9.707200e+000 -1.972909e+000 -9.478133e+000 1.056844e+000 -5.440983e-001 -1.279001e+001 -4.167484e+000 9.620423e-001 4.418365e+000 3.953244e+000 -8.107618e+000 -1.368736e+000 7.474367e-001 1.115413e+000 1.016876e+000 -2.223533e+000 -2.547068e+000 5.551706e-001 3.601872e+000 2.042378e+000 -1.717724e+000 -1.959940e+000 6.364898e-001 2.428811e+000 2.137517e-001 -1.407020e+000 -3.817322e-003 -4.157641e-001 5.550884e-001 9.484323e-001 1.954168e-001 -6.971086e-001 -9.197220e-002 1.147039e+000 3.240739e-001 -7.271710e-001 -1.122579e+000 -3.882263e-001 7.491974e-001 6.588360e-001 -1.016724e-002
<VARIANCE> 42
 1.398218e+001 4.184028e+001 6.033662e+001 8.447335e+001 6.064273e+001 5.905443e+001 7.824853e+001 1.104245e+002 9.865762e+001 8.075726e+001 1.278171e+002 6.904186e+001 8.291518e+001 1.178316e-002 8.892912e-001 2.412221e+000 3.469595e+000 5.349257e+000 4.398800e+000 4.628734e+000 7.340983e+000 5.345859e+000 5.157013e+000 6.686180e+000 5.226125e+000 5.896945e+000 4.586326e+000 5.226408e-004 3.380902e-001 3.764154e-001 5.514411e-001 8.686527e-001 8.453581e-001 1.005227e+000 1.312511e+000 1.189634e+000 1.107577e+000 1.066725e+000 1.350551e+000 9.858891e-001 1.030437e+000 1.370046e-004
<GCONST> 1.277671e+002
<MIXTURE> 8 1.599869e-002
<MEAN> 42
 -2.002710e+001 2.312314e+000 1.167866e+001 2.497200e+000 8.019072e+000 -6.341723e-001 2.161248e+000 -6.023633e-001 8.315626e-001 -4.037727e+000 -2.990388e-001 -1.571370e+000 1.433857e+000 4.591205e-001 -4.994751e+000 -1.083038e+000 -1.730870e+000 -1.024017e+000 2.869730e-001 -2.301787e-001 2.290563e-001 3.926508e-001 8.761340e-001 -3.072953e-002 5.054775e-001 3.090125e-001 -7.548931e-001 -3.343380e-002 1.028198e+000 -7.899745e-001 -5.118021e-001 -7.696858e-001 -1.301264e+000 -2.473494e-001 -7.017973e-001 -4.087031e-001 -5.648105e-001 1.676747e-001 -1.041477e-001 -1.220758e-001 1.466582e-001 1.840279e-002
<VARIANCE> 42
 5.701530e+001 8.831458e+001 7.741909e+001 5.768620e+001 4.776600e+001 5.740203e+001 5.930829e+001 5.610842e+001 4.846824e+001 4.511536e+001 3.523395e+001 3.341826e+001 3.450412e+001 1.267696e-002 6.631871e+000 3.751715e+000 5.762953e+000 4.874818e+000 4.566766e+000 5.531899e+000 5.157341e+000 5.637649e+000 4.917084e+000 5.459493e+000 5.302798e+000 4.629891e+000 4.100794e+000 1.609158e-003 8.635089e-001 9.025692e-001 8.405164e-001 9.752688e-001 8.025186e-001 1.121250e+000 9.220417e-001 1.167707e+000 9.560750e-001 1.118432e+000 1.020494e+000 8.277538e-001 8.621945e-001 1.685936e-004
<GCONST> 1.292812e+002
<MIXTURE> 9 1.647903e-002
<MEAN> 42
 -9.799350e+000 8.528404e+000 2.522207e+001 -4.353783e+000 -2.566214e+000 5.179827e+000 -4.202319e+000 -1.015157e+001 -2.418660e+000 -3.571491e+000 -1.126572e+000 -3.661280e+000 5.900238e+000 6.320140e-001 4.311010e-002 -1.400154e-001 1.737887e-001 3.672480e-001 -2.123127e-001 2.316326e-002 5.672039e-002 -1.082169e-001 -2.790244e-002 9.872510e-002 -1.797024e-002 1.552992e-001 1.473274e-001 -2.924833e-003 6.208386e-002 -2.280134e-001 -2.336482e-001 2.128771e-001 -9.128156e-002 -2.184707e-001 1.648128e-001 1.169148e-001 -1.198631e-001 -5.364727e-002 -1.204680e-001 -6.984293e-002 -1.859787e-001 -2.196032e-003
<VARIANCE> 42
 1.565051e+001 3.256082e+001 2.956187e+001 7.172639e+001 6.245830e+001 5.060384e+001 6.592115e+001 8.151122e+001 8.986807e+001 7.586861e+001 5.786877e+001 7.115300e+001 6.608949e+001 1.038530e-002 5.716623e-001 1.325361e+000 1.258164e+000 1.770179e+000 2.345736e+000 2.056560e+000 2.389605e+000 2.140505e+000 2.488085e+000 2.553219e+000 2.832275e+000 2.796696e+000 2.895172e+000 2.802987e-004 1.367344e-001 2.136350e-001 2.338418e-001 3.300991e-001 4.047182e-001 4.407865e-001 4.349092e-001 4.955705e-001 5.609776e-001 4.656358e-001 4.948246e-001 4.492501e-001 4.606388e-001 4.158419e-005
<GCONST> 1.019741e+002
<MIXTURE> 10 1.232352e-002
<MEAN> 42
 6.263463e+000 1.040512e+000 1.447945e+000 -1.556689e+001 -1.031052e+001 1.257472e+001 -3.568898e+000 -6.713120e+000 -9.932465e+000 -9.481859e+000 3.443091e+000 -2.163892e+000 6.552283e+000 7.477775e-001 -3.695307e-001 -1.652837e+000 -4.789597e-001 2.286432e+000 2.155162e+000 -2.496827e-002 -9.291189e-001 -1.882672e+000 -6.895271e-001 1.971819e+000 1.375663e+000 4.802603e-001 -4.460750e-001 -2.166763e-003 -5.927995e-001 -1.897734e-001 2.813715e-001 1.158906e+000 9.302868e-001 -1.290070e+000 -3.527872e-001 2.016851e-001 1.088624e+000 9.630485e-001 -2.563436e-001 -5.654686e-001 -5.994243e-001 -1.172094e-002
<VARIANCE> 42
 1.368204e+001 4.637418e+001 5.867800e+001 8.311559e+001 8.707641e+001 6.255315e+001 4.353473e+001 7.429671e+001 7.522054e+001 9.573779e+001 8.564618e+001 8.316791e+001 6.404900e+001 8.400720e-003 1.016964e+000 4.726121e+000 3.426238e+000 8.160099e+000 6.989874e+000 6.496183e+000 9.076441e+000 9.537196e+000 7.537198e+000 7.076944e+000 8.281707e+000 6.907661e+000 5.891379e+000 8.232336e-004 2.894397e-001 5.896392e-001 6.088974e-001 8.320988e-001 1.120882e+000 1.025530e+000 1.067016e+000 1.410653e+000 1.308332e+000 1.316859e+000 1.253733e+000 1.154066e+000 8.783975e-001 1.496041e-004
<GCONST> 1.319021e+002
<MIXTURE> 11 1.573864e-002
<MEAN> 42
 -1.015596e+001 -9.186223e+000 -5.833851e+000 -1.088629e+001 5.391236e+000 2.050650e+000 1.032245e+000 -1.804013e+000 1.392931e+000 -2.019095e+000 2.898601e-001 -2.333978e+000 1.609377e+000 3.589769e-001 3.505272e+000 2.055740e+000 1.622174e+000 2.499028e-001 -1.177824e+000 9.894094e-001 4.061592e-001 -2.234008e-001 -6.956947e-001 -6.353583e-001 -3.793525e-001 -1.160809e+000 -4.122686e-001 6.872007e-002 7.178705e-001 4.728194e-001 4.810996e-001 -8.929820e-002 -7.882380e-001 -2.666228e-001 -4.348814e-001 -1.078305e-001 -3.256007e-001 -1.132121e-002 5.652974e-002 -4.413555e-002 -3.839320e-002 2.275244e-002
<VARIANCE> 42
 3.072159e+001 7.880338e+001 4.273350e+001 8.458775e+001 7.345710e+001 5.244960e+001 6.315428e+001 7.312493e+001 6.948299e+001 5.593779e+001 6.125230e+001 5.536435e+001 3.895416e+001 2.477078e-002 3.606786e+000 5.152538e+000 6.768058e+000 5.812061e+000 6.353993e+000 6.473711e+000 5.880972e+000 7.674999e+000 6.393667e+000 6.852831e+000 7.085573e+000 5.346125e+000 5.070807e+000 2.950315e-003 5.488945e-001 8.586417e-001 7.266002e-001 9.058357e-001 9.580140e-001 9.465439e-001 8.888016e-001 1.143130e+000 1.188095e+000 1.209660e+000 1.118474e+000 1.092756e+000 8.404769e-001 3.701065e-004
<GCONST> 1.347968e+002
<MIXTURE> 12 1.337783e-002
<MEAN> 42
 -1.388947e+001 5.385303e+000 1.762769e+001 -2.973408e-001 2.344107e+000 -3.195805e-001 -1.508879e+000 -6.897017e+000 -3.466009e+000 -6.457229e+000 -2.057003e+000 -4.181471e+000 1.302366e+000 5.238855e-001 4.824798e+000 1.007250e+000 4.346778e+000 1.600577e+000 -1.179527e+000 7.463301e-001 -1.475166e+000 -5.366532e-001 -1.560126e+000 -1.260308e+000 -2.150421e-001 -6.068135e-001 5.166290e-001 8.750957e-002 -1.618300e-001 -8.475929e-001 -9.439247e-001 -4.437834e-001 -6.676115e-001 -4.558966e-002 -3.390148e-001 3.367334e-001 1.235047e-001 2.281055e-001 3.132173e-001 1.689804e-001 1.410013e-001 -1.466562e-003
<VARIANCE> 42
 4.655146e+001 4.364679e+001 7.459717e+001 4.387730e+001 5.188455e+001 4.013672e+001 4.372002e+001 5.545909e+001 4.394635e+001 3.827276e+001 2.922712e+001 3.673820e+001 3.251633e+001 1.522287e-002 6.161292e+000 5.144626e+000 4.944076e+000 7.909694e+000 6.064004e+000 5.293198e+000 4.242810e+000 5.727242e+000 5.516405e+000 6.055585e+000 5.958745e+000 5.898557e+000 5.566527e+000 2.722934e-003 6.122738e-001 4.281559e-001 6.505482e-001 5.618460e-001 6.799490e-001 5.457158e-001 7.120054e-001 7.347794e-001 6.903598e-001 9.291889e-001 6.450628e-001 7.167904e-001 5.678726e-001 2.521593e-004
<GCONST> 1.246487e+002
<MIXTURE> 13 1.633347e-002
<MEAN> 42
 4.702963e+000 -5.936122e+000 -5.732031e+000 -1.699304e+001 -2.596593e+000 7.872617e+000 -2.540307e+000 -7.073023e+000 -3.948409e+000 -3.874330e+000 8.777533e+000 -2.237027e+000 -1.779021e+000 7.538520e-001 6.619892e-001 1.625431e+000 2.318715e-001 -1.334318e+000 -1.692820e+000 1.070961e+000 2.471778e+000 1.032699e+000 -1.297944e+000 -1.507720e+000 -6.069925e-001 5.509789e-001 1.457794e+000 -1.073419e-002 -2.834771e-001 8.048029e-002 7.866532e-001 8.110006e-001 -2.445442e-001 -9.112994e-001 -3.176962e-001 4.920199e-001 5.128567e-001 2.143193e-001 -1.065723e+000 -4.191733e-001 4.436302e-001 -4.981181e-003
<VARIANCE> 42
 1.417855e+001 5.706540e+001 6.171656e+001 7.624073e+001 7.593359e+001 4.242842e+001 9.822773e+001 8.849741e+001 1.048575e+002 9.653612e+001 1.263599e+002 7.615393e+001 8.476432e+001 1.060614e-002 5.381527e-001 1.979251e+000 2.029652e+000 5.531198e+000 2.717863e+000 4.070435e+000 5.510385e+000 5.616011e+000 5.700669e+000 5.695124e+000 5.787235e+000 4.973298e+000 4.232772e+000 2.936555e-004 1.414833e-001 2.736628e-001 3.326720e-001 5.556419e-001 6.410441e-001 6.812402e-001 9.665447e-001 7.804875e-001 9.351778e-001 1.133597e+000 9.879829e-001 8.304710e-001 9.374589e-001 5.297030e-005
<GCONST> 1.201462e+002
<MIXTURE> 14 1.758201e-002
<MEAN> 42
 1.687482e+000 -1.280926e+001 4.196723e+000 -2.643359e+000 -5.897187e+000 -5.285357e+000 -1.685393e+001 1.896259e+000 5.232006e+000 -2.123475e-001 4.669373e+000 -9.030048e+000 9.230950e+000 7.446374e-001 -2.383773e-001 1.139489e+000 1.924589e+000 1.781774e+000 5.119793e-002 -7.530100e-001 2.729096e-001 2.240444e-001 -1.248813e+000 -9.852175e-001 -1.194616e+000 4.890901e-001 1.384021e+000 -2.063422e-002 -2.528592e-001 8.685209e-001 2.151856e-001 2.322138e-001 6.212527e-001 5.067351e-001 1.195309e+000 -6.245504e-001 -7.890105e-001 -9.413545e-002 -1.791126e-001 2.927139e-001 -5.090368e-001 -1.196033e-002
<VARIANCE> 42
 1.401023e+001 3.553775e+001 5.325276e+001 5.126939e+001 5.328597e+001 6.032909e+001 7.433251e+001 1.043439e+002 8.069273e+001 8.412092e+001 9.170127e+001 6.109420e+001 5.396164e+001 9.198344e-003 1.162670e+000 3.084629e+000 4.122754e+000 3.869253e+000 5.240924e+000 5.533749e+000 6.765753e+000 6.912448e+000 6.200848e+000 5.609819e+000 5.552429e+000 6.284247e+000 4.410843e+000 4.055277e-004 2.425849e-001 3.809450e-001 4.653158e-001 6.844246e-001 7.708527e-001 9.244303e-001 9.245101e-001 9.655196e-001 1.169474e+000 8.273388e-001 9.929370e-001 9.510431e-001 6.473870e-001 1.383427e-004
<GCONST> 1.237440e+002
<MIXTURE> 15 1.413173e-002
<MEAN> 42
 -7.007980e+000 -6.232416e+000 1.153508e+001 -6.470787e+000 -8.696753e+000 -7.314918e+000 -1.401589e+000 -7.468176e+000 -1.037560e+001 -8.842079e+000 -1.578817e+001 -1.173988e+001 -1.571154e+001 7.677796e-001 1.511300e-002 1.990264e-001 2.620417e-001 1.753746e-001 -2.345116e-001 3.015509e-001 4.458345e-001 2.644563e-001 5.395518e-001 5.535417e-001 3.967283e-001 5.220924e-001 3.598008e-001 -2.114320e-003 -3.383210e-002 3.524238e-001 -3.239822e-001 1.830238e-001 4.186832e-001 3.350978e-001 -8.969814e-002 -2.512191e-001 3.646406e-001 1.800002e-001 4.680675e-001 3.874679e-001 8.613820e-001 -7.336545e-003
<VARIANCE> 42
 2.564319e+001 5.228542e+001 1.053637e+002 9.523434e+001 8.544241e+001 6.211263e+001 5.096846e+001 1.156298e+002 8.751225e+001 9.419391e+001 7.365184e+001 7.133950e+001 3.560233e+001 9.369652e-003 2.087074e+000 4.089608e+000 7.780334e+000 5.034054e+000 5.572653e+000 4.524229e+000 4.337464e+000 7.114131e+000 6.849848e+000 6.131867e+000 5.839313e+000 5.432961e+000 4.973660e+000 4.497289e-004 4.150279e-001 4.176507e-001 7.278247e-001 8.571157e-001 9.584002e-001 8.991892e-001 8.002923e-001 1.173875e+000 1.140568e+000 9.892597e-001 9.535167e-001 9.365685e-001 6.731485e-001 1.215340e-004
<GCONST> 1.290718e+002
<MIXTURE> 16 2.120156e-002
<MEAN> 42
 4.977984e-001 9.904575e-001 1.710099e+000 -5.371632e+000 -9.153248e-001 1.608639e+000 2.929472e+000 6.740208e-001 7.260754e-001 8.377936e-001 1.150079e+000 -1.900603e+000 2.367669e+000 4.455579e-001 -9.390612e-001 4.971183e-001 1.548594e-001 1.519889e+000 1.078333e+000 6.213068e-001 8.946330e-001 6.296448e-002 4.669442e-001 -2.032743e-001 -2.200281e-001 3.354874e-002 -6.623460e-002 -3.461089e-002 -3.126830e-001 -2.788176e-001 -4.073457e-002 6.080208e-003 1.588727e-001 1.264691e-001 -5.248202e-002 7.498617e-002 2.774426e-002 -1.323388e-001 1.848127e-002 -1.057236e-001 2.867054e-002 -5.284364e-003
<VARIANCE> 42
 1.856764e+001 6.266208e+001 7.064032e+001 1.416264e+002 8.263815e+001 7.230128e+001 7.088903e+001 7.974035e+001 7.597134e+001 6.365963e+001 6.426420e+001 4.723783e+001 3.996963e+001 1.672858e-002 8.475630e-001 2.171018e+000 2.242392e+000 3.152235e+000 2.770769e+000 2.669740e+000 3.475511e+000 3.599565e+000 3.422726e+000 3.208910e+000 3.169102e+000 3.199043e+000 2.446254e+000 6.906868e-004 1.760260e-001 3.157807e-001 3.672446e-001 4.749068e-001 4.486155e-001 4.427767e-001 5.510988e-001 5.326278e-001 5.587322e-001 5.129595e-001 5.202862e-001 5.028039e-001 4.227614e-001 1.277688e-004
<GCONST> 1.124231e+002
<MIXTURE> 17 1.359667e-002
<MEAN> 42
 -1.714003e+001 -1.425062e+001 -6.667372e+000 -7.231474e+000 7.697269e+000 -4.755350e+000 -6.480151e+000 -6.440139e+000 1.979260e+000 7.091074e-001 2.197024e+000 -9.346594e-001 1.305914e+000 3.386597e-001 8.338965e-002 -2.614670e-001 -1.721624e-001 -2.167725e-001 8.983086e-002 3.577257e-001 2.185802e-001 -2.951504e-002 1.469991e-001 1.531611e-001 2.007640e-001 -2.238003e-001 6.930012e-002 1.466328e-002 9.787475e-001 1.049263e+000 6.213455e-001 1.815863e-001 -3.355792e-001 5.516499e-001 5.201644e-001 3.166969e-001 -2.084157e-001 -3.615416e-001 -2.471054e-001 -2.488101e-001 -4.100347e-002 3.011416e-003
<VARIANCE> 42
 3.985607e+001 4.858373e+001 4.505169e+001 8.713969e+001 5.727795e+001 5.322280e+001 4.681745e+001 6.638393e+001 5.749290e+001 5.151673e+001 4.710592e+001 4.281432e+001 3.055644e+001 2.310603e-002 4.659435e+000 3.881538e+000 3.430549e+000 2.694600e+000 3.095186e+000 4.353851e+000 3.971695e+000 3.387788e+000 3.556500e+000 3.399409e+000 3.412271e+000 3.062847e+000 2.588006e+000 1.821170e-003 8.790660e-001 6.586505e-001 7.463353e-001 8.252147e-001 7.374645e-001 8.067520e-001 7.678138e-001 8.160138e-001 7.829500e-001 8.745402e-001 8.295352e-001 7.343636e-001 5.912409e-001 5.396799e-004
<GCONST> 1.232123e+002
<MIXTURE> 18 2.095865e-002
<MEAN> 42
 -3.206916e+001 5.747401e-001 1.980521e+000 -8.074950e+000 9.292599e-002 -2.071026e+000 -1.757278e-001 -4.620697e+000 -2.917192e-001 -2.547771e+000 5.623674e-001 -1.794123e+000 9.767900e-001 4.418568e-001 -9.265231e-001 -7.131221e-001 5.267628e-001 -8.257035e-001 -1.092707e+000 -5.068672e-001 9.976268e-004 -2.808990e-001 -4.767587e-002 2.895337e-003 2.602403e-001 2.315092e-001 4.007249e-001 3.449585e-002 2.101049e+000 1.286662e-001 1.071913e+000 8.801101e-001 1.122111e-001 -1.355479e-001 -9.407628e-002 5.601335e-002 -2.653133e-001 -2.836559e-001 -2.756362e-001 -1.140590e-001 4.260973e-002 -1.401201e-003
<VARIANCE> 42
 1.549591e+001 4.273148e+001 6.215159e+001 3.725529e+001 4.260754e+001 4.085088e+001 3.762928e+001 3.260155e+001 2.846478e+001 2.833545e+001 2.321702e+001 2.353363e+001 2.098074e+001 1.197181e-002 5.627017e+000 3.171514e+000 5.993841e+000 3.447995e+000 3.455407e+000 3.332766e+000 3.261531e+000 3.019587e+000 3.169343e+000 2.630796e+000 2.777739e+000 2.564550e+000 2.496719e+000 1.784028e-003 9.760833e-001 5.557190e-001 9.112827e-001 7.884668e-001 7.507719e-001 6.553299e-001 7.210463e-001 7.534233e-001 7.191482e-001 6.775699e-001 7.225172e-001 6.008584e-001 6.029224e-001 3.931345e-004
<GCONST> 1.147716e+002
<MIXTURE> 19 2.126890e-002
<MEAN> 42
 -8.248926e-001 4.885091e+000 9.780768e+000 -1.784992e+000 -9.943768e+000 7.120625e+000 7.344988e+000 -1.415874e+001 2.957579e+000 -1.430943e+000 -5.345756e+000 -2.736483e-002 5.505295e+000 6.053590e-001 -1.187022e-001 1.121492e+000 6.530343e-001 4.680391e-001 6.231579e-001 1.111578e+000 2.193217e-001 -6.684803e-001 2.881441e-002 -3.285847e-001 -1.517704e-001 -2.240051e-001 7.705704e-002 -1.153567e-002 -2.747992e-001 -5.564412e-001 -4.783009e-001 -1.092406e-001 7.523032e-001 -7.097183e-001 -5.430655e-001 1.185721e+000 -2.292206e-001 -5.331000e-002 2.590717e-001 -3.241672e-001 -4.028014e-001 -3.983470e-003
<VARIANCE> 42
 1.830154e+001 2.708055e+001 7.952364e+001 1.160387e+002 7.124963e+001 6.922917e+001 9.863009e+001 1.174316e+002 9.810515e+001 1.062556e+002 9.744740e+001 8.518012e+001 6.945226e+001 1.414027e-002 1.148507e+000 3.363711e+000 4.615221e+000 5.081384e+000 5.071934e+000 7.274420e+000 5.623834e+000 1.110752e+001 6.409934e+000 5.300888e+000 5.213815e+000 5.323970e+000 5.003589e+000 4.054568e-004 3.167719e-001 5.142457e-001 8.344054e-001 1.205840e+000 9.671376e-001 1.074992e+000 1.193057e+000 1.468038e+000 1.221351e+000 1.126085e+000 1.236394e+000 1.059198e+000 9.009768e-001 1.400941e-004
<GCONST> 1.319452e+002
<MIXTURE> 20 2.214922e-002
<MEAN> 42
 5.919317e+000 -4.602760e-001 3.727957e-001 -2.196865e+001 -1.300240e+001 9.136411e+000 -5.492272e-001 -1.136389e+000 -2.706752e+000 -7.325908e+000 4.613734e+000 -3.880719e+000 5.816571e+000 7.450715e-001 1.240651e-001 8.954706e-001 7.165928e-001 3.504367e-001 -5.748552e-001 -5.306833e-001 -5.294121e-003 7.099583e-001 3.748583e-001 4.406325e-001 -7.984648e-001 -5.897781e-001 5.046958e-002 -1.315980e-002 -1.693096e-001 -1.914334e-001 2.636919e-002 7.226841e-001 6.705071e-001 -2.523833e-001 -3.197177e-001 -4.528821e-001 -8.256803e-002 5.709896e-001 1.531006e-001 6.183935e-002 -4.085228e-001 -4.504652e-003
<VARIANCE> 42
 1.352009e+001 6.160816e+001 5.925140e+001 7.022932e+001 7.343037e+001 4.527195e+001 5.813072e+001 7.562037e+001 8.760450e+001 6.834359e+001 8.716692e+001 6.637635e+001 6.407458e+001 1.148374e-002 5.067556e-001 2.473128e+000 2.271769e+000 2.881998e+000 3.305799e+000 3.017157e+000 3.237324e+000 3.889552e+000 3.767901e+000 4.443088e+000 4.025772e+000 4.087588e+000 3.402363e+000 3.125477e-004 8.516319e-002 3.268354e-001 2.833899e-001 3.879157e-001 3.849880e-001 4.424436e-001 6.102760e-001 6.222593e-001 6.199556e-001 5.907426e-001 6.544557e-001 6.222519e-001 5.201445e-001 4.600107e-005
<GCONST> 1.104397e+002
<MIXTURE> 21 1.258228e-002
<MEAN> 42
 -4.231992e+000 -8.391874e+000 2.515700e+001 1.039046e+001 -7.924092e+000 1.144912e+000 -1.189227e+001 7.984878e-001 -4.124195e+000 -1.834869e+001 4.549182e+000 -4.790115e+000 2.580409e-001 7.059413e-001 2.629319e-001 1.537144e-001 -5.299509e-001 7.050245e-002 2.733761e-001 -7.152368e-001 1.300423e-001 5.650472e-002 1.440247e-001 4.928238e-001 3.346612e-002 -3.183541e-003 2.453736e-001 -9.046122e-003 -3.639015e-001 6.869553e-001 -9.433085e-001 -5.401723e-001 8.490906e-001 -1.835392e-001 7.650086e-001 -2.791837e-001 2.744705e-001 1.261424e+000 -2.124814e-001 2.675095e-001 1.048026e-001 -1.663660e-002
<VARIANCE> 42
 2.148509e+001 3.331674e+001 3.580919e+001 4.345992e+001 4.178325e+001 6.470967e+001 5.705212e+001 4.811292e+001 5.721824e+001 4.260318e+001 5.585995e+001 5.255258e+001 5.250132e+001 1.381331e-002 2.037245e+000 3.353752e+000 6.054863e+000 3.444110e+000 6.617977e+000 5.326760e+000 7.002062e+000 4.720801e+000 3.981573e+000 7.323972e+000 4.357478e+000 3.912858e+000 3.875706e+000 1.231171e-003 4.401635e-001 4.916801e-001 5.351723e-001 6.765981e-001 6.981068e-001 9.524238e-001 7.688669e-001 8.206608e-001 8.452102e-001 8.731160e-001 7.382653e-001 7.804981e-001 6.296585e-001 1.561879e-004
<GCONST> 1.217831e+002
<MIXTURE> 22 1.643723e-002
<MEAN> 42
 -7.960288e+000 3.407428e+000 2.088329e+001 3.503711e+000 -2.825538e+000 -2.114279e+000 2.563796e-001 -4.249783e+000 -4.973702e+000 -4.489449e+000 -1.420537e+000 -1.747498e+000 3.844276e+000 5.366383e-001 -1.960406e+000 1.609937e+000 -1.799856e+000 9.272732e-001 2.515844e+000 1.430302e-001 1.720556e+000 6.229369e-001 1.725829e+000 2.858135e-001 3.361500e-001 8.768645e-002 -6.601999e-001 -6.726452e-002 -5.706305e-001 -5.003374e-001 -1.033894e+000 -4.470273e-001 2.696500e-001 2.514059e-001 -2.683102e-001 2.244320e-001 2.899322e-001 7.670268e-002 5.640835e-002 -1.158507e-001 -3.057234e-001 -1.180483e-002
<VARIANCE> 42
 2.775982e+001 4.627697e+001 4.958261e+001 5.593900e+001 5.661008e+001 7.003800e+001 6.014546e+001 6.251769e+001 6.187753e+001 5.906449e+001 4.188128e+001 4.000417e+001 4.706687e+001 2.010856e-002 5.586140e+000 5.477139e+000 5.697863e+000 5.477865e+000 4.281053e+000 6.054662e+000 4.770268e+000 6.481324e+000 5.724721e+000 7.520139e+000 5.377217e+000 5.025001e+000 5.563004e+000 1.309053e-003 5.356004e-001 6.283745e-001 7.184286e-001 7.059018e-001 7.406960e-001 9.590353e-001 7.438239e-001 7.922368e-001 8.452728e-001 8.343090e-001 6.923223e-001 6.305144e-001 6.007103e-001 2.355276e-004
<GCONST> 1.273714e+002
<MIXTURE> 23 1.800529e-002
<MEAN> 42
 1.285289e+000 -1.686507e+000 2.928066e-001 -8.742267e+000 2.694605e+000 -6.526049e-001 -5.041186e+000 -5.760314e+000 -1.815008e+000 -5.615703e-001 1.181202e+000 -4.217745e+000 8.450893e-001 6.295456e-001 4.241895e+000 7.225766e-001 5.820966e-001 -1.681507e+000 -2.233063e+000 1.345431e+000 -9.039841e-001 -1.798814e-001 -9.828184e-001 -5.978093e-003 8.211931e-001 -5.674018e-001 4.077365e-001 9.704749e-002 -9.529924e-001 -6.332846e-001 -2.380110e-001 -9.539728e-002 -3.891094e-001 1.078164e-001 1.985614e-001 4.206812e-001 8.088107e-002 -1.068770e-001 5.384744e-002 1.625875e-001 2.018018e-001 -1.359198e-002
<VARIANCE> 42
 2.125653e+001 6.394670e+001 4.310080e+001 8.968763e+001 5.732706e+001 6.198566e+001 9.592392e+001 9.152111e+001 7.710346e+001 5.833400e+001 6.393125e+001 4.804388e+001 4.782595e+001 1.043731e-002 5.107145e+000 7.550220e+000 7.060009e+000 8.605540e+000 7.100122e+000 8.225235e+000 8.103133e+000 7.748672e+000 1.006886e+001 9.178249e+000 8.822149e+000 7.353549e+000 6.757591e+000 2.460731e-003 6.530081e-001 5.756271e-001 5.840408e-001 8.460850e-001 8.719386e-001 8.652642e-001 1.268653e+000 1.101524e+000 1.056354e+000 8.776728e-001 8.017718e-001 7.827076e-001 6.392279e-001 2.934832e-004
<GCONST> 1.354827e+002
<MIXTURE> 24 1.729848e-002
<MEAN> 42
 2.988871e-001 -1.878501e+001 -7.267611e+000 -1.141061e+001 -1.543160e+000 -1.124064e+000 -1.435032e+000 6.051950e+000 -7.333081e-001 2.736409e+000 -5.912233e+000 -7.351417e+000 -1.125035e+000 8.422395e-001 2.037325e-001 -4.206607e-001 -8.080113e-001 -2.534029e-002 6.751497e-001 1.370568e+000 4.985223e-001 -3.341846e-001 -3.131046e-001 -1.565052e-001 4.582919e-001 -2.117963e-001 -1.079138e-001 3.450827e-004 -9.247279e-002 7.758581e-001 7.567959e-001 1.647845e-001 -2.349391e-001 -4.759048e-001 -3.458991e-001 -4.973094e-001 -1.228759e-001 -1.422861e-001 3.549172e-001 5.188931e-001 7.173165e-002 -1.062978e-002
<VARIANCE> 42
 1.569562e+001 2.792349e+001 3.204544e+001 5.097890e+001 5.528920e+001 6.926437e+001 6.201764e+001 6.961254e+001 8.517323e+001 7.776771e+001 1.480531e+002 7.885706e+001 9.374371e+001 3.874905e-003 8.037943e-001 1.460344e+000 3.057589e+000 2.509920e+000 3.135824e+000 5.676599e+000 4.147321e+000 4.105546e+000 3.093410e+000 3.551216e+000 4.561177e+000 3.999765e+000 3.632263e+000 1.864049e-004 1.507415e-001 2.524614e-001 2.505052e-001 5.119001e-001 4.851234e-001 5.718327e-001 5.329490e-001 6.927800e-001 7.110249e-001 7.184744e-001 8.312583e-001 6.651663e-001 8.109840e-001 6.514155e-005
<GCONST> 1.116450e+002
<MIXTURE> 25 1.540227e-002
<MEAN> 42
 -4.642693e-001 -1.083362e+001 3.830944e+000 -7.007973e+000 -5.426518e+000 -1.212614e+001 -8.211180e+000 4.642247e+000 3.966465e+000 3.125928e+000 -2.631402e+000 6.234294e-001 4.568901e+000 7.333847e-001 5.782943e-001 -1.096605e+000 -3.340232e+000 -1.635820e+000 1.747112e+000 8.976310e-001 9.824243e-001 1.071534e+000 2.041791e+000 1.238068e+000 -2.789173e-001 -1.389621e+000 -1.368774e+000 3.074169e-003 -2.852790e-001 4.900376e-001 2.635837e-001 2.681766e-001 4.532371e-001 1.012673e+000 5.866733e-001 -9.420891e-001 -7.726412e-001 -4.331627e-001 1.358538e-001 -4.745596e-001 -2.781191e-001 -9.535216e-003
<VARIANCE> 42
 1.360159e+001 4.327229e+001 4.983786e+001 5.071411e+001 6.696531e+001 5.712072e+001 9.518503e+001 9.692003e+001 8.491920e+001 8.563943e+001 7.161848e+001 6.685691e+001 5.717057e+001 1.286235e-002 1.306792e+000 2.414907e+000 3.971557e+000 3.484943e+000 6.045686e+000 5.515228e+000 8.170188e+000 7.858032e+000 6.036950e+000 7.718655e+000 5.718291e+000 6.027531e+000 5.507832e+000 6.876113e-004 2.897149e-001 3.364086e-001 4.741254e-001 7.007411e-001 8.000354e-001 8.067145e-001 1.069117e+000 1.086972e+000 1.112348e+000 9.694477e-001 8.842216e-001 8.704326e-001 7.601913e-001 8.338732e-005
<GCONST> 1.255217e+002
<MIXTURE> 26 1.953177e-002
<MEAN> 42
 -8.760858e+000 -6.692744e+000 -6.543740e+000 -1.040551e+001 3.338894e+000 3.607618e+000 2.839999e+000 9.619185e-001 2.351357e+000 -2.034730e+000 -1.987223e-001 -2.891005e+000 1.974408e-001 2.201413e-001 -1.236459e+000 -4.989726e-001 -7.284470e-001 -3.149059e-002 -4.954504e-002 -2.996430e-001 -3.348545e-001 -2.055662e-001 -8.216055e-002 -4.471126e-001 -8.474091e-002 -2.165872e-001 -2.055273e-001 -4.310644e-002 3.346149e-001 3.191468e-001 4.023776e-001 1.650152e-001 -2.719903e-001 -2.908949e-001 -3.465626e-001 -3.096872e-001 -2.534776e-001 -7.589507e-002 -4.874763e-002 -2.247514e-002 1.509085e-002 1.190212e-002
<VARIANCE> 42
 2.262866e+001 5.672879e+001 4.928319e+001 7.966331e+001 7.990807e+001 7.952303e+001 6.246463e+001 7.540259e+001 7.551562e+001 6.778484e+001 7.633258e+001 5.641463e+001 4.552493e+001 3.382143e-002 2.743501e+000 4.155859e+000 4.394514e+000 5.673050e+000 4.711975e+000 6.161915e+000 5.317826e+000 5.468044e+000 5.275428e+000 4.982898e+000 4.142422e+000 4.460206e+000 3.597963e+000 3.390995e-003 4.726743e-001 6.501321e-001 5.635694e-001 7.683163e-001 7.916133e-001 9.178463e-001 8.461681e-001 1.022919e+000 1.026534e+000 9.645438e-001 9.475524e-001 8.882300e-001 8.077247e-001 4.103057e-004
<GCONST> 1.306706e+002
<MIXTURE> 27 1.452229e-002
<MEAN> 42
 2.994439e+000 -7.949239e+000 -2.716619e+000 -9.378248e+000 2.608748e-001 2.539080e+000 -1.162514e+001 -7.674599e+000 -1.581249e+000 5.563797e+000 3.660515e+000 -7.005384e+000 -2.354316e+000 7.441796e-001 -1.037073e+000 -1.284652e+000 1.324139e+000 3.103046e+000 6.298218e-001 -3.210495e+000 -1.608780e+000 1.794973e+000 2.902001e+000 4.371097e-001 -2.383611e+000 -1.415729e+000 7.341027e-001 -6.000312e-003 -3.138998e-001 5.390919e-001 8.707108e-001 2.226402e-001 -5.155404e-001 -2.330855e-001 9.680517e-001 7.962716e-001 -2.964372e-001 -1.359774e+000 -6.980043e-001 5.479447e-001 8.258986e-001 -8.442464e-003
<VARIANCE> 42
 1.575624e+001 4.603649e+001 5.289737e+001 1.012946e+002 5.910830e+001 6.107661e+001 7.787936e+001 1.030917e+002 1.115510e+002 8.912009e+001 1.534660e+002 7.716485e+001 8.531821e+001 1.372156e-002 9.265999e-001 3.132166e+000 4.453319e+000 5.513762e+000 5.430420e+000 4.788971e+000 6.222260e+000 6.764333e+000 6.043305e+000 8.013284e+000 5.456505e+000 5.417867e+000 5.474798e+000 4.363462e-004 3.107607e-001 4.727646e-001 4.269897e-001 7.698681e-001 8.912622e-001 1.099751e+000 1.221190e+000 1.254451e+000 1.490533e+000 8.830444e-001 1.559309e+000 1.117423e+000 8.233320e-001 1.095367e-004
<GCONST> 1.296743e+002
<MIXTURE> 28 1.861312e-002
<MEAN> 42
 -7.932059e-001 -1.423573e+001 3.496759e+000 -7.504125e+000 -6.983653e+000 -6.675635e+000 -6.148219e+000 1.095302e+001 8.397445e-002 3.592068e+000 -4.459641e+000 -1.665210e+000 3.939353e+000 7.578088e-001 -8.677443e-002 5.293738e-001 6.607195e-001 2.738751e-001 -2.386319e-001 -2.076995e-001 1.120417e-001 1.560799e-001 -2.416110e-001 -7.378913e-002 2.209373e-001 2.790070e-001 6.693201e-002 -1.053854e-002 7.401256e-002 3.541191e-001 2.050749e-001 2.184559e-001 1.336502e-001 2.438291e-004 -1.935389e-001 -5.342659e-001 -2.056476e-001 -6.979203e-002 8.310316e-002 8.542956e-004 8.416823e-002 -3.159550e-003
<VARIANCE> 42
 1.438325e+001 4.168341e+001 4.572857e+001 4.792979e+001 6.141191e+001 7.179041e+001 1.282330e+002 6.001711e+001 5.431371e+001 7.297754e+001 8.666042e+001 7.883390e+001 8.047311e+001 8.230349e-003 4.245002e-001 1.051648e+000 2.378807e+000 1.212329e+000 1.819003e+000 2.044344e+000 2.280244e+000 2.458440e+000 2.598780e+000 2.283643e+000 2.317595e+000 2.625373e+000 2.288837e+000 1.197695e-004 5.769278e-002 1.486160e-001 1.998727e-001 2.126199e-001 2.612118e-001 3.034915e-001 3.605759e-001 3.229342e-001 3.359970e-001 3.996777e-001 4.091413e-001 3.457374e-001 3.267374e-001 2.271523e-005
<GCONST> 9.561895e+001
<MIXTURE> 29 1.404066e-002
<MEAN> 42
 -6.274470e+000 -2.372675e+000 8.594224e+000 -6.077334e+000 -8.357911e+000 -1.265884e+001 -6.511129e+000 -1.123465e+001 -8.596902e+000 -1.006599e+001 -1.110682e+001 -6.826651e+000 -7.163645e+000 6.954044e-001 4.500283e+000 -1.605284e+000 4.321155e-001 -1.554651e+000 -1.599347e+000 -1.097338e+000 -7.720925e-001 9.485627e-002 -7.343016e-001 4.269158e-001 -2.949655e+000 -5.655566e-001 -2.712447e+000 9.147636e-002 -1.012676e+000 -4.616183e-001 -9.771691e-001 -1.358082e-001 7.035056e-001 1.195083e+000 9.555420e-001 1.036540e+000 9.188048e-001 9.298700e-001 6.708342e-001 4.372255e-001 3.595439e-001 -1.566203e-002
<VARIANCE> 42
 4.218830e+001 5.464543e+001 9.755477e+001 5.939190e+001 5.333175e+001 6.654375e+001 6.423438e+001 8.728355e+001 7.861443e+001 7.499818e+001 6.333178e+001 7.608372e+001 4.382375e+001 8.634580e-003 7.243795e+000 6.772012e+000 1.093343e+001 9.220994e+000 6.496441e+000 8.643860e+000 7.542363e+000 1.316923e+001 1.069204e+001 1.138749e+001 8.674667e+000 9.631499e+000 8.046461e+000 1.947588e-003 8.927820e-001 6.028571e-001 1.136218e+000 7.540473e-001 1.040586e+000 1.069925e+000 9.610439e-001 1.112054e+000 1.228563e+000 1.258691e+000 1.326432e+000 1.305557e+000 9.936664e-001 3.636552e-004
<GCONST> 1.412584e+002
<MIXTURE> 30 2.093943e-002
<MEAN> 42
 1.942000e+000 -4.741916e+000 1.188763e+001 2.372475e+000 -2.925728e+000 4.296854e+000 -1.288362e+000 -4.475884e+000 -8.039223e+000 5.409283e+000 2.705282e+000 -9.749709e+000 9.266182e+000 6.275018e-001 -2.916591e-001 5.744086e-001 3.666711e-001 7.790385e-001 5.935272e-001 3.007642e-001 8.460316e-001 -5.747944e-001 -2.443244e-001 5.361613e-002 -5.351793e-001 7.257580e-002 -2.400950e-001 -9.661988e-003 -9.078785e-002 1.600294e-001 -4.088165e-001 -3.347668e-001 1.270894e-001 -2.768952e-001 -1.512192e-001 3.874405e-001 3.368442e-001 -3.345480e-001 1.501051e-001 2.281578e-001 -3.304164e-001 -5.917599e-004
<VARIANCE> 42
 1.107556e+001 3.273411e+001 3.586593e+001 5.557661e+001 6.046983e+001 6.444069e+001 6.488720e+001 5.585857e+001 5.765665e+001 6.292089e+001 9.119877e+001 9.010229e+001 3.525835e+001 9.615695e-003 5.558341e-001 1.702187e+000 2.280552e+000 2.620924e+000 2.287721e+000 2.718416e+000 3.386779e+000 2.702745e+000 2.898870e+000 3.276546e+000 3.233501e+000 2.522955e+000 2.270979e+000 1.318691e-004 1.566450e-001 3.235314e-001 4.176543e-001 4.979986e-001 5.279926e-001 5.830318e-001 7.647548e-001 6.694037e-001 7.401239e-001 7.444257e-001 6.645280e-001 6.990421e-001 4.718326e-001 4.379686e-005
<GCONST> 1.067344e+002
<MIXTURE> 31 1.699510e-002
<MEAN> 42
 -7.983943e+000 7.439423e+000 6.734819e+000 5.806226e+000 6.756214e+000 1.299834e+000 3.105311e-001 -2.847143e+000 -5.955703e-001 -3.941145e+000 -8.717870e-001 -2.298321e+000 1.230875e+000 1.861479e-001 -3.091975e+000 -2.454273e+000 -2.416806e+000 -2.063895e+000 -2.654495e-001 -8.754849e-001 -5.435336e-001 1.452021e-001 4.976790e-001 -2.508359e-001 8.778716e-002 4.162849e-001 -8.809614e-001 -6.852259e-002 2.044437e-001 -1.499611e+000 -3.305979e-001 -1.685238e+000 -1.153139e+000 -6.388945e-001 -7.462545e-001 -2.007710e-001 -4.769842e-001 2.647764e-001 3.089486e-002 -1.454842e-001 3.742762e-001 4.941564e-002
<VARIANCE> 42
 1.754032e+001 1.550951e+001 2.502205e+001 3.176247e+001 2.819496e+001 4.058229e+001 4.577398e+001 3.869233e+001 3.802296e+001 3.668199e+001 3.007961e+001 2.630723e+001 2.659341e+001 1.867436e-002 3.392866e+000 5.598284e+000 5.924233e+000 8.523647e+000 5.562773e+000 6.742873e+000 6.933121e+000 5.385792e+000 5.929654e+000 5.912612e+000 5.050279e+000 5.200063e+000 4.021265e+000 4.479520e-003 1.085443e+000 8.875890e-001 1.021616e+000 1.126101e+000 1.007553e+000 1.075114e+000 1.191105e+000 1.302386e+000 1.151017e+000 1.199429e+000 1.022575e+000 9.757856e-001 8.309733e-001 4.954446e-004
<GCONST> 1.272771e+002
<MIXTURE> 32 1.749862e-002
<MEAN> 42
 -1.739408e+001 -9.997124e+000 4.299916e+000 -5.172318e-001 1.798128e+000 -1.156806e+001 -6.861039e+000 -8.643978e-001 2.864972e+000 -4.280788e+000 -1.212642e+000 -1.033006e+000 3.844836e+000 4.476396e-001 4.086292e+000 4.706806e-002 2.356731e-001 -7.628351e-001 5.093466e-003 1.201013e-001 -1.810075e+000 -3.815246e-001 -2.104314e-002 6.841084e-001 -1.440841e-001 -7.230846e-001 2.093303e-001 7.651871e-002 1.154226e+000 4.942341e-001 -1.707655e-001 -3.847196e-001 -8.399924e-002 1.453179e+000 3.119220e-001 -1.732769e-001 -4.300229e-001 2.367079e-001 1.861880e-001 -3.192375e-001 -4.268321e-001 4.720943e-003
<VARIANCE> 42
 6.742586e+001 3.755724e+001 4.127380e+001 6.625285e+001 4.392219e+001 4.132109e+001 4.977202e+001 6.780518e+001 4.790516e+001 4.784154e+001 3.693071e+001 3.129220e+001 3.099193e+001 2.279091e-002 1.588076e+001 6.785898e+000 7.348135e+000 8.003051e+000 6.890942e+000 8.075514e+000 8.876561e+000 8.216584e+000 7.579762e+000 6.508129e+000 7.976888e+000 5.394125e+000 6.417795e+000 5.027382e-003 1.655630e+000 1.048116e+000 7.202524e-001 1.270574e+000 1.185824e+000 8.873605e-001 1.134896e+000 1.310052e+000 1.358259e+000 1.302920e+000 1.361113e+000 9.798331e-001 1.059137e+000 6.195312e-004
<GCONST> 1.387403e+002
<MIXTURE> 33 1.525456e-002
<MEAN> 42
 -2.027203e+000 3.011837e+000 6.588161e+000 3.263048e+000 7.590164e+000 3.370472e+000 -6.363290e-001 -6.922881e+000 -2.240154e+000 2.847594e+000 7.303206e-001 -5.561650e+000 4.351196e+000 4.799988e-001 -3.892215e+000 6.014055e-001 -2.981109e-001 8.983644e-001 2.286936e+000 -7.337102e-001 9.969209e-001 1.497694e+000 1.843953e+000 -1.240016e+000 -1.732347e-001 1.297857e+000 -1.345344e+000 -8.540092e-002 -7.102273e-001 -1.156259e+000 -4.588170e-001 -1.269434e+000 -1.231450e+000 -5.363368e-001 -4.942408e-001 3.958710e-001 -5.338275e-002 -4.806722e-001 7.961503e-002 2.607825e-001 -6.462568e-002 5.186223e-003
<VARIANCE> 42
 2.000302e+001 3.792199e+001 3.960087e+001 6.029587e+001 6.185446e+001 5.250120e+001 1.029533e+002 6.692525e+001 7.423685e+001 5.283936e+001 5.212747e+001 6.257022e+001 3.393688e+001 1.620116e-002 5.157617e+000 7.688293e+000 6.383354e+000 1.030919e+001 7.213631e+000 9.192819e+000 9.717198e+000 8.910008e+000 8.639153e+000 9.006341e+000 7.303766e+000 7.875257e+000 4.992497e+000 2.170209e-003 5.797999e-001 8.783294e-001 8.216472e-001 8.495060e-001 1.070166e+000 1.068835e+000 1.572003e+000 1.272080e+000 1.415332e+000 1.190417e+000 1.014184e+000 1.047052e+000 8.501965e-001 3.615326e-004
<GCONST> 1.369812e+002
<MIXTURE> 34 1.625513e-002
<MEAN> 42
 -2.959450e+001 -2.314794e+000 -1.672406e+000 -5.663924e+000 -4.667435e-001 -3.436044e+000 -1.606623e-001 -5.484561e+000 -6.490866e-001 -2.777150e+000 5.920128e-001 -1.560511e+000 9.669954e-001 4.265531e-001 -7.090373e-002 -3.396944e-001 1.119032e-001 -3.695850e-001 -2.749676e-001 -1.530614e-001 -7.783599e-002 1.221618e-002 -1.384442e-002 -2.712878e-002 8.883279e-002 -3.170876e-002 1.303423e-001 4.796226e-003 6.394075e-001 1.962383e-001 6.173095e-001 2.501712e-001 1.755366e-001 1.044765e-001 1.158836e-001 6.237774e-002 -9.590826e-003 -9.290232e-002 -1.163085e-001 -7.394148e-002 5.237214e-003 -1.971205e-003
<VARIANCE> 42
 2.434675e+001 6.714576e+001 5.754795e+001 4.817532e+001 4.669536e+001 3.540082e+001 3.026520e+001 3.075648e+001 2.592097e+001 2.694987e+001 2.401270e+001 2.257061e+001 1.830979e+001 1.866299e-002 7.317280e-001 8.828129e-001 1.539287e+000 1.464264e+000 1.776145e+000 1.845997e+000 2.072249e+000 2.071850e+000 2.228237e+000 2.210454e+000 2.194226e+000 2.037295e+000 1.796441e+000 4.402619e-004 2.455019e-001 2.525680e-001 3.225405e-001 3.551942e-001 3.738224e-001 3.987010e-001 4.565104e-001 4.698203e-001 4.902340e-001 4.732105e-001 4.878184e-001 4.054412e-001 4.055331e-001 1.061448e-004
<GCONST> 9.597913e+001
<MIXTURE> 35 1.519914e-002
<MEAN> 42
 -8.712505e+000 1.645156e+000 2.603426e+001 -4.040623e+000 -7.578081e+000 2.485430e+000 -5.437475e+000 -6.656135e+000 -9.277010e+000 -2.354158e+000 -2.592011e+000 -4.272121e+000 4.304249e+000 6.804601e-001 8.600735e-001 -8.468864e-001 -2.979914e-002 -1.433236e-003 -1.377798e+000 -1.647445e-001 -9.264648e-002 6.741164e-001 -1.783193e-001 1.128107e+000 4.381031e-001 4.547222e-001 7.298236e-001 1.248703e-002 -4.135677e-001 -5.257816e-002 -1.460770e+000 2.048179e-001 7.146587e-001 -4.349580e-001 4.635692e-001 3.217712e-001 7.514415e-001 -2.444233e-002 2.250967e-001 1.069212e-001 -2.716486e-001 -1.772615e-002
<VARIANCE> 42
 1.795848e+001 4.781205e+001 2.614904e+001 5.664395e+001 6.468804e+001 5.616929e+001 4.403386e+001 6.913364e+001 8.736626e+001 7.137030e+001 5.561133e+001 7.016908e+001 6.938703e+001 8.551650e-003 2.296640e+000 3.477265e+000 4.606214e+000 4.615864e+000 4.214020e+000 6.055311e+000 4.412835e+000 4.725588e+000 4.957493e+000 5.403368e+000 4.703529e+000 5.244138e+000 4.601057e+000 1.131720e-003 7.605748e-001 6.774145e-001 6.613815e-001 7.969280e-001 9.376898e-001 7.204142e-001 6.951902e-001 8.533700e-001 1.021525e+000 9.826325e-001 8.637799e-001 8.705580e-001 7.948738e-001 1.754695e-004
<GCONST> 1.252213e+002
<MIXTURE> 36 1.694224e-002
<MEAN> 42
 3.657369e+000 -2.631372e+000 4.731863e+000 -3.490377e+000 -2.532429e-001 4.826816e+000 -4.499355e+000 -8.995672e+000 -9.771825e+000 2.708678e+000 4.374123e+000 -5.738631e+000 4.933005e+000 6.417839e-001 -1.489520e+000 2.495893e+000 5.184163e-001 2.002671e+000 2.562055e+000 -1.023315e-001 1.571908e+000 5.102776e-002 4.721324e-001 -3.921943e-001 -9.081863e-001 4.432539e-001 -3.231482e-001 -5.618418e-002 -1.203407e+000 -1.499589e-002 -9.856503e-002 -1.008661e-001 1.922595e-001 -5.020919e-001 2.161453e-001 8.801033e-001 1.133083e+000 -5.549610e-001 -2.702335e-001 3.093348e-001 -3.013285e-001 -1.916921e-002
<VARIANCE> 42
 1.257298e+001 4.110704e+001 5.230762e+001 1.653848e+002 7.082895e+001 6.165382e+001 1.177711e+002 9.279292e+001 7.362945e+001 9.845458e+001 7.342583e+001 8.187687e+001 5.736046e+001 1.037839e-002 2.628810e+000 4.742830e+000 4.515789e+000 8.782421e+000 6.333280e+000 7.147598e+000 7.788289e+000 7.460696e+000 8.029104e+000 8.982285e+000 6.736431e+000 5.831425e+000 4.921621e+000 1.241341e-003 4.387358e-001 7.697228e-001 7.646381e-001 1.816235e+000 1.223362e+000 1.134934e+000 1.638726e+000 1.331089e+000 1.096245e+000 1.282144e+000 1.096056e+000 1.254784e+000 8.787945e-001 2.129051e-004
<GCONST> 1.366121e+002
<MIXTURE> 37 1.873087e-002
<MEAN> 42
 4.035954e+000 -9.304994e+000 -3.818015e+000 -2.361561e+001 5.552336e-001 4.987171e+000 -2.547921e+000 -4.166969e-001 -5.659086e+000 7.828842e+000 3.654280e+000 -1.524902e+000 -6.744260e-001 7.505806e-001 1.279192e-001 6.158525e-001 2.780512e-001 2.501823e-001 -1.526534e-001 -2.081977e-002 2.046374e-001 -7.298148e-002 -8.227991e-002 -9.173003e-002 -2.547645e-001 3.714956e-001 2.194805e-001 -1.439838e-002 -1.272696e-001 3.083161e-001 1.660090e-001 7.486560e-001 -2.197732e-002 -2.097744e-001 -1.399633e-001 -1.744981e-001 1.495744e-001 -3.368004e-001 -2.493410e-001 -1.790304e-001 2.674019e-001 -6.898440e-003
<VARIANCE> 42
 8.864861e+000 4.382095e+001 2.966379e+001 5.795300e+001 4.953992e+001 4.735111e+001 7.930600e+001 7.800282e+001 9.434508e+001 7.112340e+001 7.335588e+001 5.868726e+001 6.165432e+001 1.081562e-002 4.218630e-001 2.017008e+000 1.610590e+000 3.178421e+000 2.326394e+000 2.463370e+000 3.273547e+000 2.886227e+000 2.910588e+000 3.522532e+000 3.005801e+000 2.684295e+000 2.816147e+000 3.936218e-004 8.460187e-002 2.601237e-001 1.905497e-001 3.294782e-001 3.574314e-001 3.947536e-001 5.041627e-001 4.116799e-001 4.839556e-001 5.688975e-001 4.422741e-001 4.321125e-001 4.077002e-001 5.055799e-005
<GCONST> 1.030912e+002
<MIXTURE> 38 1.526308e-002
<MEAN> 42
 7.222365e-001 -2.547412e+000 8.153789e+000 3.854646e+000 2.988875e+000 2.069718e+000 -3.595622e+000 -1.048940e+001 -5.957646e+000 1.766351e+000 -9.883584e-001 -6.656776e+000 5.050384e+000 6.174455e-001 -3.170805e-001 -5.480372e-001 8.908901e-003 -8.545845e-001 -5.264276e-002 -9.663363e-001 -1.119332e+000 7.779142e-001 6.792259e-001 -2.475457e-001 4.862879e-001 1.927853e-001 -4.790509e-001 5.483811e-003 5.734200e-002 -5.603582e-001 -2.740903e-001 -1.192286e+000 -9.943169e-001 -4.024501e-001 -3.933392e-001 9.903448e-001 3.795038e-001 -2.524982e-001 1.425328e-001 1.880662e-001 -1.449933e-001 1.127225e-002
<VARIANCE> 42
 1.638506e+001 4.778051e+001 5.316924e+001 8.726561e+001 6.550085e+001 8.938513e+001 8.874016e+001 1.010367e+002 1.070440e+002 8.693179e+001 1.193388e+002 1.022840e+002 8.500320e+001 1.169671e-002 1.566712e+000 3.183418e+000 6.201502e+000 9.047747e+000 7.077033e+000 7.198835e+000 6.896211e+000 9.789887e+000 8.506313e+000 7.366915e+000 6.014593e+000 6.834001e+000 5.081941e+000 5.781072e-004 2.434712e-001 6.187675e-001 9.380318e-001 1.105532e+000 1.023935e+000 1.295357e+000 1.661981e+000 1.511160e+000 2.130812e+000 1.570470e+000 1.419072e+000 1.287038e+000 1.274035e+000 1.282962e-004
<GCONST> 1.368541e+002
<MIXTURE> 39 1.481624e-002
<MEAN> 42
 -1.571563e+000 -1.240112e+001 4.744879e+000 -1.088559e+001 -5.952657e+000 -1.279533e+001 -1.615500e+000 7.499119e+000 -1.288648e+000 4.852681e+000 -7.603939e+000 4.150568e+000 -3.420559e-001 7.543312e-001 1.778626e-001 2.145138e+000 1.815399e+000 1.590080e+000 -2.557973e-001 -4.861299e-001 -8.473397e-001 -1.446797e+000 -9.945104e-001 -2.356199e-001 4.343356e-001 6.678385e-001 7.677281e-001 -2.476520e-002 -1.538126e-001 8.778149e-001 9.381964e-002 8.838396e-001 5.757661e-001 7.998521e-001 7.047766e-002 -9.198995e-001 -1.770444e-001 -5.827743e-001 8.870259e-002 -6.338184e-001 3.401088e-001 -1.330199e-002
<VARIANCE> 42
 1.169808e+001 3.609286e+001 4.639735e+001 3.922825e+001 6.616161e+001 6.018216e+001 1.023586e+002 7.918726e+001 5.705558e+001 7.452077e+001 6.513189e+001 4.755946e+001 9.220380e+001 5.868953e-003 7.994903e-001 2.709415e+000 2.941041e+000 3.457289e+000 3.866901e+000 4.422642e+000 4.905799e+000 5.039837e+000 4.478078e+000 5.353985e+000 4.337222e+000 4.718759e+000 4.253780e+000 3.771493e-004 2.240015e-001 3.728929e-001 4.839855e-001 5.221726e-001 7.023218e-001 7.087789e-001 9.026691e-001 1.126352e+000 8.179094e-001 7.563817e-001 8.720616e-001 6.284803e-001 7.182098e-001 1.477692e-004
<GCONST> 1.179407e+002
<MIXTURE> 40 1.483922e-002
<MEAN> 42
 2.378462e+000 -8.314178e+000 7.434848e+000 1.547734e+000 -2.792038e-001 -4.390585e+000 -1.393121e+001 -1.829778e+000 -5.479444e-001 -2.560443e+000 -1.215155e+000 -3.180387e+000 5.209365e+000 6.858503e-001 2.260713e-001 -5.275530e-001 -6.100070e-001 -1.203798e+000 -5.990418e-001 -4.108854e-001 -8.555978e-001 7.219480e-001 7.411948e-001 3.537077e-001 3.293604e-001 6.274011e-001 -2.210862e-001 1.101661e-002 -1.270841e-001 -2.926198e-002 -8.920237e-002 -3.277980e-001 -2.193588e-001 1.829862e-001 4.301470e-001 1.098129e-001 -6.132506e-002 1.667129e-001 1.512702e-001 -8.940730e-002 -1.081901e-001 1.063479e-004
<VARIANCE> 42
 1.662658e+001 4.992059e+001 5.893291e+001 1.237887e+002 6.533939e+001 7.508028e+001 1.364987e+002 7.520237e+001 7.974508e+001 1.339983e+002 1.082608e+002 7.605183e+001 5.554658e+001 1.145967e-002 8.711743e-001 1.732453e+000 3.186950e+000 4.459259e+000 6.030205e+000 4.514165e+000 5.603033e+000 5.220424e+000 4.713359e+000 6.118865e+000 5.523728e+000 4.040243e+000 4.192283e+000 3.740465e-004 1.343172e-001 2.474374e-001 4.019102e-001 5.700804e-001 8.090219e-001 6.851153e-001 8.690710e-001 6.408720e-001 7.499330e-001 8.062376e-001 8.217865e-001 5.497760e-001 6.115756e-001 4.797375e-005
<GCONST> 1.203504e+002
<MIXTURE> 41 1.262587e-002
<MEAN> 42
 -2.609931e+001 -5.025139e-001 4.887109e+000 -5.269261e+000 -2.097787e+000 -5.889369e+000 1.813055e+000 -4.567134e+000 -2.115501e+000 -4.557276e+000 1.273586e+000 -6.772467e-001 8.944919e-001 4.523651e-001 4.714784e+000 -8.605292e-001 2.701356e+000 3.888947e-002 -1.977436e+000 -2.896285e+000 -2.172619e+000 -8.663778e-001 -1.651229e+000 -1.474090e+000 -1.800564e+000 -4.038005e-001 -1.325056e-001 6.588548e-002 2.126353e+000 -5.010047e-001 1.759787e-001 1.204654e-001 -1.067716e-001 -8.919291e-002 -6.950042e-001 3.158598e-001 -3.456511e-002 2.288225e-001 -8.565857e-001 -3.030326e-001 -2.880643e-001 1.787051e-002
<VARIANCE> 42
 3.341554e+001 4.174366e+001 8.152084e+001 3.723207e+001 4.200234e+001 4.142426e+001 3.967751e+001 4.371350e+001 3.495941e+001 3.261887e+001 2.922533e+001 2.830393e+001 3.434753e+001 1.216563e-002 9.500112e+000 4.353495e+000 6.157859e+000 5.655501e+000 3.465814e+000 4.315053e+000 5.150886e+000 6.271054e+000 6.081580e+000 5.730689e+000 5.453509e+000 4.545789e+000 5.731761e+000 2.004517e-003 1.368607e+000 7.115352e-001 1.428338e+000 9.782640e-001 1.012457e+000 1.019773e+000 1.202254e+000 1.343423e+000 1.265034e+000 1.448424e+000 1.571789e+000 1.052318e+000 1.302006e+000 2.437903e-004
<GCONST> 1.298749e+002
<MIXTURE> 42 2.086093e-002
<MEAN> 42
 -2.008177e+001 -7.161753e+000 -1.956794e-002 -6.376321e+000 -1.522798e+000 -3.822019e+000 -2.798666e+000 -5.590523e+000 -1.412069e+000 -4.333693e+000 -1.131888e+000 -2.546018e+000 -1.444599e-001 2.516299e-001 -2.153448e+000 -1.237307e+000 -2.545877e-001 -2.054901e+000 -1.300462e+000 -1.170924e+000 -7.769344e-001 -6.023065e-001 -1.787189e-001 3.382305e-002 2.215142e-001 2.889848e-001 4.340940e-001 7.775977e-002 9.562681e-001 8.662310e-001 8.573677e-001 7.059585e-001 3.688246e-001 2.668514e-001 1.940241e-001 3.285641e-001 1.740825e-001 1.159401e-001 5.624607e-002 -1.318283e-002 2.360822e-001 1.688592e-002
<VARIANCE> 42
 3.651257e+001 5.470335e+001 5.177217e+001 3.986165e+001 4.178115e+001 3.516953e+001 3.214477e+001 3.404504e+001 2.589276e+001 2.518531e+001 2.050212e+001 1.872465e+001 1.596409e+001 2.050845e-002 1.003867e+001 5.273431e+000 6.275384e+000 5.204440e+000 4.386199e+000 4.366585e+000 4.211888e+000 4.270219e+000 3.732249e+000 3.351973e+000 3.359674e+000 2.886826e+000 2.696545e+000 3.816586e-003 1.445809e+000 8.655319e-001 1.268599e+000 1.115787e+000 8.950440e-001 8.875043e-001 7.930402e-001 7.815510e-001 7.040443e-001 7.054254e-001 6.936913e-001 5.806513e-001 5.672587e-001 7.221682e-004
<GCONST> 1.220004e+002
<MIXTURE> 43 1.817881e-002
<MEAN> 42
 -2.442370e+000 -1.210783e+001 -9.305430e+000 -8.161597e+000 -3.057968e-002 -6.170866e+000 5.459613e+000 -4.042320e+000 8.284629e+000 -7.363901e+000 -6.788061e+000 -7.305890e+000 -3.217154e+000 7.602276e-001 1.813854e-001 2.638448e-001 3.480835e-002 5.395307e-001 2.910609e-001 3.047095e-001 6.799524e-002 -2.411793e-001 2.089086e-001 -1.938553e-001 1.761552e-001 2.136732e-001 2.238525e-001 -9.010871e-003 1.194626e-001 5.841012e-001 7.936411e-001 1.193274e-001 -4.879164e-001 1.995154e-001 -5.277289e-001 -2.822138e-001 -7.205204e-001 3.389604e-001 3.787194e-001 2.470883e-001 4.969774e-002 -5.646621e-003
<VARIANCE> 42
 1.534221e+001 3.167306e+001 4.737894e+001 9.424402e+001 8.890749e+001 6.142474e+001 8.842358e+001 1.203081e+002 7.919501e+001 1.045495e+002 1.212914e+002 9.743382e+001 8.240919e+001 1.239434e-002 8.612099e-001 2.570653e+000 5.692060e+000 2.712522e+000 7.824880e+000 6.417148e+000 7.806811e+000 6.486717e+000 5.278984e+000 5.616490e+000 6.185410e+000 6.290686e+000 5.603958e+000 2.411821e-004 1.314141e-001 3.039758e-001 3.001768e-001 5.993562e-001 7.584383e-001 7.122217e-001 1.047881e+000 1.125519e+000 1.016424e+000 1.011068e+000 1.082605e+000 1.083389e+000 1.018744e+000 5.378301e-005
<GCONST> 1.248841e+002
<MIXTURE> 44 1.161402e-002
<MEAN> 42
 6.646914e+000 1.055346e+001 4.791484e+000 -1.729308e+001 -1.182607e+001 1.803862e+000 -4.692161e+000 1.662064e+000 -1.657175e+000 -7.347563e+000 -1.458734e+000 -8.605796e+000 4.470891e-001 6.762370e-001 4.746041e-002 -3.862271e-001 -4.762446e-002 1.904900e-001 -6.137847e-002 8.938045e-001 3.387421e-001 -2.157882e-001 -5.139574e-001 -3.402809e-001 1.236783e-001 3.158412e-001 6.475561e-001 4.964926e-003 -4.774011e-001 -7.938802e-001 -5.028763e-001 5.510074e-001 7.878339e-001 2.651896e-001 2.151215e-001 -5.654594e-001 -3.884405e-001 1.868057e-001 3.311107e-001 6.138265e-001 3.182776e-001 -1.094774e-002
<VARIANCE> 42
 1.309765e+001 4.934640e+001 4.212858e+001 6.551078e+001 6.205494e+001 6.878705e+001 3.753828e+001 5.999737e+001 6.549798e+001 6.650822e+001 5.720509e+001 6.438451e+001 5.968149e+001 1.582305e-002 8.263832e-001 3.759286e+000 2.389665e+000 4.648013e+000 3.105050e+000 4.889346e+000 3.496660e+000 3.719015e+000 4.826891e+000 5.360561e+000 3.316803e+000 4.363320e+000 4.786901e+000 1.276944e-003 2.514290e-001 4.949443e-001 4.306416e-001 7.922231e-001 5.291559e-001 6.673865e-001 6.501024e-001 8.737768e-001 8.979210e-001 8.275819e-001 7.968688e-001 7.601703e-001 6.738782e-001 2.239516e-004
<GCONST> 1.194893e+002
<MIXTURE> 45 1.229469e-002
<MEAN> 42
 -6.522272e+000 1.401212e+000 2.254095e+000 2.001349e+000 5.949568e+000 7.551808e+000 8.569793e+000 3.764689e+000 4.053700e+000 7.051949e-002 1.247198e+000 -2.134999e+000 3.007663e+000 2.262180e-001 -2.264770e+000 -1.129266e+000 -1.448007e+000 -1.114315e-001 6.945598e-001 -4.412684e-001 -3.545221e-001 2.764946e-001 2.513224e-001 -5.679775e-001 -2.296736e-001 -1.663811e-001 -6.716704e-001 -8.940556e-002 -4.565479e-003 -1.986009e-001 -2.209668e-001 -6.734799e-001 -6.791877e-001 -7.224823e-001 -8.521037e-001 -4.876843e-001 -3.830463e-001 -2.115271e-001 -1.967229e-001 -8.984219e-002 -1.697459e-001 -5.467528e-003
<VARIANCE> 42
 1.427352e+001 3.103349e+001 4.854837e+001 7.485844e+001 4.991036e+001 4.834523e+001 3.551177e+001 4.931221e+001 4.777062e+001 4.426662e+001 4.094773e+001 3.461058e+001 3.341071e+001 1.613968e-002 1.518483e+000 2.112385e+000 2.831331e+000 4.564254e+000 3.968215e+000 3.909536e+000 4.324341e+000 4.398291e+000 4.334985e+000 3.925211e+000 3.499990e+000 3.084150e+000 2.633220e+000 1.673872e-003 1.459761e-001 3.696124e-001 4.381440e-001 4.221219e-001 4.422970e-001 5.039906e-001 6.186771e-001 6.530377e-001 6.531695e-001 6.016322e-001 5.076810e-001 5.536916e-001 4.725189e-001 1.766200e-004
<GCONST> 1.116263e+002
<MIXTURE> 46 1.494768e-002
<MEAN> 42
 -1.366842e+000 2.125759e+000 6.810898e-001 -4.401386e+000 -8.089442e+000 2.719729e+000 2.997901e+000 -2.168607e+001 -5.443654e+000 -1.477672e+001 -2.239040e+001 -1.325897e+001 -1.328523e+001 7.635251e-001 -1.512510e-001 6.169220e-001 6.750754e-001 6.862946e-001 3.187955e-001 4.264816e-001 4.531445e-001 4.535401e-002 9.820217e-002 -6.806568e-002 1.423502e-002 -1.621459e-001 3.037243e-001 -9.583249e-003 -4.437420e-001 -4.397308e-001 -4.134250e-002 -7.684878e-002 4.077263e-001 -3.599513e-001 -1.395332e-001 9.759802e-001 2.409967e-001 5.448716e-001 9.997008e-001 3.677058e-001 5.728731e-001 -1.341057e-002
<VARIANCE> 42
 1.800732e+001 4.261808e+001 1.027579e+002 1.148658e+002 8.093340e+001 6.791098e+001 8.447079e+001 1.520443e+002 9.862721e+001 1.281156e+002 8.488083e+001 8.704482e+001 4.816086e+001 1.341517e-002 1.322288e+000 3.403216e+000 3.922429e+000 5.939057e+000 5.656978e+000 6.122284e+000 6.299324e+000 1.325873e+001 7.766773e+000 7.490950e+000 7.975439e+000 6.612879e+000 6.404978e+000 1.446319e-003 3.567669e-001 4.802428e-001 8.754653e-001 1.144039e+000 9.851537e-001 1.003988e+000 1.001351e+000 1.639074e+000 1.310126e+000 1.446395e+000 1.350791e+000 1.531349e+000 1.063441e+000 2.176924e-004
<GCONST> 1.368842e+002
<MIXTURE> 47 1.071588e-002
<MEAN> 42
 -3.222365e+000 -1.961755e+000 -1.350025e+001 -2.143768e+001 1.100029e+000 -4.941456e+000 -3.610588e+000 3.454463e-001 -6.475660e+000 2.336691e+000 -1.318347e+000 -1.449514e+000 1.896713e+000 4.338810e-001 1.523456e+000 -2.206444e-001 -7.172401e-001 -2.298618e+000 -5.255719e-001 1.071147e-001 -4.174516e-001 3.001353e-002 -7.548926e-001 3.119814e-001 2.083082e-001 4.980012e-002 5.284063e-001 8.348405e-002 -7.195443e-002 4.985550e-001 1.834838e+000 1.858879e+000 -1.357576e-001 9.003762e-001 3.577021e-001 -4.612775e-001 3.661875e-001 -8.546401e-001 1.628248e-001 -3.251438e-001 -3.774503e-002 -8.530646e-003
<VARIANCE> 42
 2.416409e+001 5.870404e+001 3.942953e+001 3.952382e+001 8.018500e+001 6.501110e+001 5.012155e+001 7.354465e+001 5.524763e+001 5.572532e+001 5.350418e+001 5.259161e+001 3.918505e+001 2.157416e-002 3.559914e+000 5.662230e+000 1.055737e+001 1.519075e+001 5.737250e+000 5.353753e+000 5.154627e+000 7.139334e+000 7.150828e+000 7.439940e+000 6.199892e+000 5.448364e+000 4.588235e+000 5.372207e-003 7.988421e-001 1.145610e+000 8.991909e-001 1.165590e+000 1.323981e+000 1.040466e+000 1.042168e+000 1.659240e+000 1.260186e+000 1.398871e+000 1.119235e+000 1.094416e+000 1.030537e+000 1.032433e-003
<GCONST> 1.380301e+002
<MIXTURE> 48 2.102266e-002
<MEAN> 42
 -1.348637e+001 -1.518557e+001 -9.998857e-001 -5.127994e+000 3.346924e+000 -6.802396e+000 -6.195372e+000 2.516571e+000 2.889147e+000 -6.581891e+000 -1.061995e+000 -2.500258e+000 4.844404e-002 5.467481e-002 -3.914153e-002 -2.388296e-002 5.707311e-002 5.417889e-003 -1.406013e-001 -1.106310e-002 1.083973e-001 1.037201e-001 -6.312490e-002 -1.170303e-002 -3.057760e-002 1.423279e-001 6.080183e-002 -4.559123e-004 3.545188e-002 1.375177e-001 -6.872236e-002 3.147510e-002 -3.282992e-002 7.080811e-002 3.231021e-002 -7.092877e-002 -5.886018e-002 -5.213438e-003 -1.500271e-002 1.609845e-002 3.498569e-002 -2.718873e-003
<VARIANCE> 42
 8.647278e+000 1.304675e+001 2.925039e+001 2.275134e+001 3.080569e+001 3.459724e+001 4.927687e+001 4.138409e+001 3.339122e+001 2.830376e+001 2.748465e+001 2.937428e+001 2.237336e+001 6.477339e-003 2.208306e-001 5.225192e-001 7.740584e-001 9.328347e-001 1.228672e+000 1.737643e+000 1.823352e+000 2.043921e+000 2.115731e+000 2.068247e+000 2.104388e+000 2.012714e+000 1.890049e+000 1.914007e-004 3.521293e-002 9.451378e-002 1.219297e-001 1.711996e-001 2.395971e-001 3.373837e-001 3.699811e-001 3.969086e-001 3.894412e-001 3.887001e-001 4.080606e-001 4.077416e-001 3.757534e-001 1.809689e-005
<GCONST> 7.961810e+001
<MIXTURE> 49 1.255225e-002
<MEAN> 42
 -7.133931e+000 -3.669482e+000 2.704949e+001 7.314003e+000 -4.000777e+000 3.029121e-001 -7.421391e+000 1.990289e+000 -8.779746e+000 -1.231611e+001 2.826827e+000 -2.874475e+000 -6.900005e-001 6.276939e-001 1.082478e-001 6.975039e-002 -2.531882e-002 1.559346e-001 -1.497597e-001 -2.713618e-001 -5.336776e-002 -1.519809e-001 -4.959084e-002 -5.386967e-002 -8.126359e-002 -1.004285e-001 8.629467e-002 -2.836350e-003 7.126727e-003 6.125351e-002 -2.975477e-001 -8.130746e-002 1.266906e-001 -1.772144e-001 9.206326e-002 -1.626388e-001 1.510131e-001 1.897487e-001 -1.645487e-001 -2.063602e-005 1.672406e-001 -2.877816e-003
<VARIANCE> 42
 2.297762e+001 3.857407e+001 2.921611e+001 7.041116e+001 4.809985e+001 6.403782e+001 7.032159e+001 5.371243e+001 8.029168e+001 9.737556e+001 6.284775e+001 7.337296e+001 7.045551e+001 1.104552e-002 4.250545e-001 9.393364e-001 1.101324e+000 1.184162e+000 1.267542e+000 1.656376e+000 1.531035e+000 1.575549e+000 1.432902e+000 1.502406e+000 1.747549e+000 1.672202e+000 1.709336e+000 2.007087e-004 1.071056e-001 1.683774e-001 2.340743e-001 2.064450e-001 3.006016e-001 3.338272e-001 3.577688e-001 3.697385e-001 3.587970e-001 3.688948e-001 3.704560e-001 3.343488e-001 3.326038e-001 5.016893e-005
<GCONST> 9.337851e+001
<MIXTURE> 50 1.598627e-002
<MEAN> 42
 -1.226477e+001 -8.570573e+000 6.593782e-001 -6.738512e+000 1.347273e+000 -5.034770e+000 -1.166699e+000 -2.815509e+000 -3.026801e-001 -2.935913e+000 1.723306e-001 8.848313e-002 6.424281e-001 3.771483e-001 -3.947844e-001 -2.797244e+000 -1.426476e+000 -2.820793e+000 -9.581572e-001 -2.101585e+000 -1.603910e+000 -9.971508e-002 -4.613415e-002 4.318274e-002 3.611639e-001 4.449122e-001 2.068636e-001 6.945843e-002 1.094433e+000 7.208636e-001 4.854351e-001 3.697975e-001 -3.113375e-001 6.438119e-001 -9.584446e-002 -2.959712e-001 -1.895505e-001 7.520107e-002 -4.531672e-001 -7.385763e-001 1.456835e-001 2.309952e-002
<VARIANCE> 42
 3.407259e+001 5.194030e+001 7.492103e+001 5.369421e+001 7.224754e+001 7.413081e+001 7.191685e+001 5.764610e+001 5.131816e+001 5.585673e+001 5.019537e+001 4.334420e+001 3.865345e+001 2.169590e-002 9.709989e+000 5.076652e+000 8.214836e+000 7.392538e+000 7.899298e+000 8.447927e+000 8.796937e+000 9.581839e+000 7.818069e+000 7.868281e+000 8.499379e+000 6.235837e+000 5.390018e+000 7.208542e-003 9.846639e-001 1.261255e+000 1.499298e+000 1.434147e+000 2.010759e+000 1.784216e+000 2.058594e+000 2.049685e+000 1.742027e+000 1.771682e+000 2.231670e+000 1.404124e+000 1.428792e+000 6.820428e-004
<GCONST> 1.458707e+002
<MIXTURE> 51 1.505543e-002
<MEAN> 42
 -5.921434e+000 8.346333e+000 1.096977e+001 8.083310e+000 3.974426e+000 -4.779376e+000 -4.519435e-001 -1.299207e-001 1.505761e+000 -4.130181e+000 -1.687603e+000 -1.936085e-001 3.792870e+000 4.153500e-001 -3.368854e+000 1.444316e+000 -1.740263e+000 3.557944e-001 2.227199e+000 1.950622e+000 1.715252e+000 1.684406e-001 1.055619e+000 1.542167e-001 8.249555e-001 -2.199578e-001 -1.439487e+000 -1.070600e-001 -7.535447e-001 -1.839781e+000 -8.110886e-001 -1.565101e+000 -8.646765e-001 -8.112266e-002 -5.342436e-001 -2.727610e-001 -4.658305e-001 1.881019e-001 9.283666e-002 -1.822210e-001 -8.771202e-002 1.066665e-002
<VARIANCE> 42
 3.313749e+001 3.132805e+001 3.284918e+001 3.419214e+001 3.369606e+001 4.672840e+001 4.647812e+001 3.895755e+001 3.821510e+001 3.545220e+001 3.946856e+001 3.074129e+001 3.490699e+001 1.554918e-002 5.293186e+000 6.152946e+000 5.454379e+000 6.376341e+000 4.501852e+000 5.460832e+000 5.995085e+000 5.765002e+000 5.763341e+000 6.030241e+000 6.062348e+000 6.576622e+000 5.145251e+000 2.025927e-003 5.898826e-001 5.842849e-001 7.587945e-001 7.510933e-001 7.366928e-001 9.887784e-001 8.031551e-001 9.142284e-001 9.251626e-001 1.054571e+000 8.885025e-001 7.719792e-001 7.306514e-001 4.294043e-004
<GCONST> 1.254503e+002
<MIXTURE> 52 1.259674e-002
<MEAN> 42
 2.512045e+000 -1.362062e+001 -1.007112e+001 -1.581648e+001 2.705305e+000 1.102271e+001 -2.805686e+000 -5.704676e-001 -4.251845e+000 -2.075411e+000 -2.667238e+000 -5.308796e+000 -9.771398e+000 7.699510e-001 1.732965e-001 9.613581e-001 1.426837e-001 -7.679367e-002 2.835522e-002 4.475969e-001 4.918447e-002 -8.452132e-002 -3.602953e-001 -2.642885e-001 6.998844e-001 -3.288183e-001 -2.398105e-002 -1.404432e-002 -4.331417e-002 2.868915e-001 4.254791e-001 1.715768e-001 -2.680719e-001 -6.973490e-001 2.051241e-002 3.364319e-002 1.354339e-001 1.841187e-001 -2.858215e-001 -2.815307e-002 3.649500e-001 -3.864178e-003
<VARIANCE> 42
 1.460914e+001 2.587594e+001 3.153794e+001 5.889677e+001 9.573528e+001 7.125185e+001 5.271484e+001 4.434880e+001 7.145400e+001 7.437125e+001 1.051165e+002 6.879157e+001 8.788751e+001 1.446956e-002 4.716562e-001 1.368545e+000 1.266578e+000 2.728863e+000 2.432273e+000 3.854843e+000 3.182917e+000 2.352127e+000 3.132829e+000 4.060871e+000 3.666838e+000 3.511928e+000 2.888716e+000 3.517272e-004 1.127044e-001 1.851043e-001 2.241191e-001 3.984612e-001 4.173415e-001 5.612486e-001 6.057522e-001 4.647348e-001 5.549566e-001 6.042345e-001 6.638795e-001 6.083457e-001 5.584927e-001 3.795268e-005
<GCONST> 1.064373e+002
<MIXTURE> 53 1.736826e-002
<MEAN> 42
 -1.981652e+001 8.385169e-001 3.013759e+000 1.098571e+000 5.558904e+000 9.128187e-001 2.811669e+000 -1.340088e+000 1.400660e+000 -1.941809e+000 2.706874e-002 -1.910967e+000 -3.676819e-001 2.477596e-001 -3.517076e+000 -2.456434e+000 -2.588474e+000 -2.808112e+000 -1.646498e+000 -1.312278e+000 -9.921514e-001 -9.499606e-001 -4.055279e-001 -1.996098e-001 2.216243e-001 2.057073e-001 -2.818758e-001 -4.065579e-003 1.362310e+000 -2.061626e-001 5.552425e-001 -4.679531e-001 -9.670634e-001 -6.188135e-001 -7.162123e-001 -4.221363e-001 -5.037630e-001 -1.773199e-001 -2.359831e-001 -9.760892e-002 5.300765e-001 4.277147e-002
<VARIANCE> 42
 5.676070e+001 5.824018e+001 5.152876e+001 4.075909e+001 3.974563e+001 3.669514e+001 3.384618e+001 3.257463e+001 2.864569e+001 2.516301e+001 2.542413e+001 2.476855e+001 1.966358e+001 1.933250e-002 6.932786e+000 4.007087e+000 4.750650e+000 4.733759e+000 3.758166e+000 4.091409e+000 4.667509e+000 4.141487e+000 3.976689e+000 3.697076e+000 3.406943e+000 3.123822e+000 2.836400e+000 2.949395e-003 1.730257e+000 9.841281e-001 1.073118e+000 1.175422e+000 9.190341e-001 1.195553e+000 9.740162e-001 9.349985e-001 9.827948e-001 8.920949e-001 9.141940e-001 9.292795e-001 7.680490e-001 3.352709e-004
<GCONST> 1.239001e+002
<MIXTURE> 54 1.515159e-002
<MEAN> 42
 4.235930e+000 -9.064259e+000 -4.072525e-002 -1.714958e+001 -6.823651e+000 7.409444e+000 -8.746725e+000 -7.331107e+000 -4.066778e+000 -9.401246e-001 1.218838e+001 -3.856352e+000 3.631827e+000 7.837929e-001 -1.543088e-002 -6.364013e-001 -3.814885e-001 -4.857163e-001 8.076333e-003 2.740428e-001 1.874871e-001 6.051027e-001 4.814956e-001 5.716128e-001 2.937538e-001 -3.065945e-001 -1.963573e-001 8.755693e-003 -7.249488e-001 4.413177e-001 7.440004e-002 8.636426e-001 7.752507e-001 -5.924398e-001 5.209148e-001 3.365927e-001 2.083141e-001 -3.145915e-002 -1.019987e+000 -1.149883e-001 -2.884638e-002 -2.297584e-002
<VARIANCE> 42
 1.326400e+001 4.272547e+001 5.148330e+001 7.968495e+001 5.755408e+001 5.350842e+001 1.050144e+002 8.041436e+001 1.282096e+002 1.004521e+002 7.770295e+001 7.125475e+001 6.253067e+001 7.732075e-003 7.946350e-001 3.953855e+000 1.944921e+000 5.278022e+000 4.071470e+000 3.776119e+000 8.070745e+000 4.117900e+000 5.993378e+000 6.817861e+000 5.425827e+000 4.341534e+000 4.082143e+000 8.161113e-004 4.301214e-001 4.946001e-001 4.300649e-001 6.209307e-001 6.052038e-001 6.535063e-001 9.515305e-001 8.603001e-001 1.338420e+000 1.052235e+000 9.108060e-001 1.057414e+000 6.675668e-001 2.167863e-004
<GCONST> 1.246231e+002
<MIXTURE> 55 1.763670e-002
<MEAN> 42
 3.952656e+000 -4.503927e+000 1.911109e+000 -4.439433e+000 -4.830290e+000 2.469332e+000 5.704389e-001 -1.164185e+000 -6.453588e+000 6.696713e+000 1.140287e+000 -8.622974e+000 6.066757e+000 6.404829e-001 -2.806227e-001 1.153347e+000 1.928736e+000 2.380236e+000 -1.549345e-001 3.253998e-001 1.640245e+000 -2.080805e+000 -4.924502e-001 9.764358e-001 -1.757299e+000 -8.782350e-002 1.099528e+000 -2.118642e-002 -2.815425e-001 -7.247718e-002 2.375073e-001 -1.545434e-001 3.315525e-001 8.027764e-002 -3.422651e-001 -4.653419e-002 4.828696e-001 -7.062734e-001 -2.119817e-002 3.975773e-001 -4.292200e-001 2.479360e-003
<VARIANCE> 42
 1.046749e+001 3.122735e+001 6.998902e+001 8.702649e+001 8.363719e+001 6.737951e+001 7.028704e+001 8.392124e+001 7.256562e+001 7.568246e+001 1.495375e+002 9.689965e+001 7.191727e+001 9.618467e-003 7.916754e-001 3.946076e+000 3.897845e+000 5.589416e+000 6.741224e+000 6.744786e+000 8.337890e+000 7.488765e+000 7.036967e+000 7.132100e+000 6.109891e+000 7.308871e+000 5.491188e+000 2.835256e-004 1.080945e-001 2.989454e-001 6.532296e-001 6.416140e-001 7.618722e-001 7.782495e-001 1.101829e+000 1.123245e+000 9.312815e-001 9.091114e-001 1.147598e+000 1.013070e+000 7.692024e-001 3.798709e-005
<GCONST> 1.251915e+002
<MIXTURE> 56 1.563145e-002
<MEAN> 42
 -8.967930e-001 -1.022233e+001 -8.451591e+000 -9.676942e+000 1.435851e+000 -4.775702e-001 5.984865e+000 -5.745064e+000 5.120384e+000 -5.942507e+000 -2.409991e+000 -5.428353e+000 -1.943279e+000 7.367088e-001 1.734159e-001 4.296930e-001 2.153108e-001 -7.608312e-002 -1.750447e-001 1.810108e-001 3.906577e-004 1.823106e-001 -1.080423e-001 -1.892974e-001 2.533697e-001 9.932826e-002 -1.357781e-001 -7.808799e-003 8.062392e-002 1.768499e-001 3.063331e-001 -2.073429e-002 -3.086602e-001 -1.573157e-001 -3.018113e-001 3.126956e-001 -9.415885e-002 1.531376e-001 -9.355661e-002 3.486895e-002 2.062150e-002 -1.916953e-003
<VARIANCE> 42
 1.813126e+001 5.977059e+001 7.076855e+001 1.143155e+002 8.251071e+001 8.138413e+001 1.056341e+002 1.472856e+002 1.012768e+002 9.044855e+001 1.386977e+002 1.055329e+002 8.193660e+001 1.501250e-002 2.495378e-001 7.926841e-001 8.252079e-001 1.578251e+000 1.450580e+000 1.609202e+000 1.680626e+000 2.443176e+000 1.756539e+000 1.861868e+000 2.028513e+000 1.927803e+000 1.790635e+000 1.165465e-004 4.299668e-002 1.065136e-001 1.466417e-001 1.850682e-001 2.246980e-001 2.555480e-001 4.062545e-001 3.821814e-001 3.976996e-001 3.643291e-001 3.851540e-001 3.634489e-001 3.438572e-001 1.585777e-005
<GCONST> 9.581046e+001
<MIXTURE> 57 1.215333e-002
<MEAN> 42
 -7.967407e+000 -3.427573e+000 2.015141e+001 5.552239e+000 -2.210277e+000 -7.114592e+000 -5.966021e+000 -2.241041e+000 -4.865966e+000 -1.029078e+001 -1.802886e+000 -1.746330e+000 4.024799e+000 6.411336e-001 5.072231e+000 -1.682025e+000 1.372395e+000 1.202170e+000 -2.003794e+000 -3.002521e-001 -3.594726e+000 5.906960e-001 -6.602985e-001 -1.138219e+000 4.727160e-001 -3.991314e-001 8.559344e-001 7.363216e-002 -6.908520e-001 -3.807430e-001 -1.466969e+000 -9.464955e-001 -4.021348e-002 4.107184e-001 -4.182301e-002 1.019647e-001 4.856198e-001 8.610889e-001 3.730559e-001 -6.361958e-002 -1.462141e-001 -9.612597e-003
<VARIANCE> 42
 2.755133e+001 2.953529e+001 4.482335e+001 4.251633e+001 3.991607e+001 6.098833e+001 5.454538e+001 4.174294e+001 4.831815e+001 4.506258e+001 3.954216e+001 3.450237e+001 3.895104e+001 8.560596e-003 7.373829e+000 4.306337e+000 5.757628e+000 5.520331e+000 5.371985e+000 6.377923e+000 5.758662e+000 6.172332e+000 6.898079e+000 1.017563e+001 6.632337e+000 6.209514e+000 5.930467e+000 1.406885e-003 1.042346e+000 4.553614e-001 7.981113e-001 7.150990e-001 7.784101e-001 8.465750e-001 8.069367e-001 8.372803e-001 8.648861e-001 8.953828e-001 7.220918e-001 5.946683e-001 6.156138e-001 2.245673e-004
<GCONST> 1.258812e+002
<MIXTURE> 58 1.205273e-002
<MEAN> 42
 3.283690e+000 6.772151e+000 1.223117e+000 -1.211667e+001 -3.308082e+000 7.093977e+000 5.205463e+000 -1.349321e-001 -3.842072e+000 -5.386429e+000 -1.634617e+000 -3.318311e+000 4.439633e+000 5.288523e-001 -2.832772e+000 4.831127e-001 1.193032e-001 3.404819e+000 2.485396e+000 -5.348151e-001 1.300438e+000 6.015000e-001 1.246976e+000 -1.827352e-002 -3.553026e-001 4.837612e-001 -3.515528e-001 -9.709349e-002 -1.040219e+000 -1.116189e+000 -3.434182e-001 1.578029e-001 2.274900e-001 -5.458409e-001 -7.751823e-001 -2.622289e-001 2.759718e-001 3.235957e-001 4.433772e-001 5.700077e-002 -3.928035e-001 -1.731449e-002
<VARIANCE> 42
 1.426297e+001 4.402708e+001 5.206381e+001 1.015533e+002 6.955451e+001 6.065279e+001 5.135065e+001 7.590070e+001 8.392300e+001 7.379047e+001 6.413171e+001 6.540572e+001 6.143087e+001 1.697244e-002 2.555490e+000 5.137975e+000 4.053619e+000 6.470045e+000 6.849621e+000 6.430038e+000 6.091708e+000 8.023319e+000 6.907721e+000 6.651264e+000 5.729635e+000 5.943733e+000 5.333917e+000 1.932653e-003 3.341652e-001 4.378956e-001 5.379018e-001 9.871880e-001 7.730956e-001 8.973119e-001 9.581363e-001 9.448987e-001 1.050390e+000 1.110515e+000 9.997500e-001 9.721214e-001 7.204623e-001 2.526304e-004
<GCONST> 1.307270e+002
<MIXTURE> 59 1.298621e-002
<MEAN> 42
 -3.400406e+001 -1.138347e+001 1.019978e+001 -2.536734e+000 -1.593089e-001 -6.724883e+000 -2.010882e+000 9.741990e-001 1.723593e+000 -5.644648e+000 8.436654e-001 -4.113062e-001 1.858132e+000 5.624521e-001 -1.116433e-001 -1.908751e-001 -1.734818e-001 -3.654732e-001 -4.208831e-001 -5.281777e-001 -7.191376e-002 1.272837e-001 -1.204838e-002 -1.061082e-002 -5.939619e-002 -4.237459e-002 1.237791e-001 9.704993e-003 1.391341e+000 2.665917e-001 -2.903172e-002 1.380730e-001 2.993529e-002 -1.217444e-001 -2.211256e-001 -1.654145e-001 -1.108975e-001 2.163859e-003 -1.361518e-001 -1.106684e-001 -4.646445e-002 -7.322226e-003
<VARIANCE> 42
 1.633595e+001 3.959086e+001 2.824110e+001 6.360515e+001 3.911897e+001 4.177494e+001 5.021891e+001 4.812500e+001 4.467889e+001 3.269563e+001 2.930939e+001 2.281357e+001 2.128504e+001 1.036352e-002 3.736125e+000 1.379008e+000 1.648366e+000 2.356632e+000 1.751301e+000 2.506802e+000 2.108561e+000 2.198353e+000 2.003123e+000 2.229716e+000 2.200973e+000 2.143495e+000 1.793590e+000 8.073400e-004 9.462637e-001 3.056822e-001 3.446576e-001 3.784538e-001 3.475831e-001 4.792667e-001 4.512454e-001 5.183800e-001 4.716381e-001 4.841775e-001 5.414658e-001 4.738623e-001 4.247289e-001 1.347338e-004
<GCONST> 1.020178e+002
<MIXTURE> 60 1.196673e-002
<MEAN> 42
 5.564215e+000 -8.371583e-001 2.691592e+000 -1.427924e+001 -8.870694e+000 7.623572e+000 -5.944392e+000 -6.079818e+000 -7.750144e+000 -6.961798e+000 6.378536e+000 -5.682886e+000 3.257835e+000 7.349622e-001 2.369325e+000 -4.823987e-001 8.623029e-001 -1.706536e+000 -3.507167e+000 2.216447e+000 -3.054639e-001 1.590113e-001 -8.179683e-001 -9.175890e-001 1.276195e+000 -8.736033e-001 8.253928e-001 7.330266e-002 -1.516932e+000 -5.570288e-001 -4.550073e-001 4.140340e-001 8.196921e-001 -6.741158e-001 2.628874e-001 3.469858e-001 7.839565e-001 6.584921e-001 -4.148782e-001 2.053300e-001 -6.136489e-002 -3.036205e-002
<VARIANCE> 42
 1.137791e+001 7.297900e+001 5.915850e+001 1.009691e+002 7.038085e+001 6.835970e+001 6.307971e+001 8.288416e+001 1.082362e+002 8.368799e+001 1.155996e+002 6.710307e+001 7.971928e+001 8.277239e-003 3.112052e+000 4.640045e+000 5.410713e+000 7.519256e+000 6.434521e+000 5.214544e+000 6.357350e+000 7.014719e+000 8.672472e+000 8.705976e+000 7.688483e+000 6.395193e+000 5.320260e+000 2.116061e-003 4.428213e-001 7.465385e-001 8.431276e-001 1.208127e+000 9.802741e-001 1.000032e+000 1.136551e+000 1.319783e+000 1.484698e+000 1.327686e+000 1.503428e+000 1.184631e+000 1.154714e+000 2.035288e-004
<GCONST> 1.369168e+002
<MIXTURE> 61 1.215238e-002
<MEAN> 42
 -1.317998e+000 -1.274509e+001 4.870290e-001 -1.499893e+001 -4.467515e+000 -1.143033e+001 -1.643107e+000 4.619946e+000 -7.038517e-001 1.728766e+000 -1.057483e+001 -6.362748e-001 -7.517498e+000 8.032429e-001 9.572487e-001 -2.642096e+000 -2.250890e+000 -1.379530e+000 1.255027e+000 2.043327e+000 1.495516e+000 2.357924e+000 2.788683e-001 8.579768e-001 -1.283195e+000 -1.058894e-001 -4.166765e-001 3.728304e-002 -1.271926e+000 5.748021e-001 -1.830257e-001 1.004092e+000 6.227867e-001 1.042195e+000 1.716963e-001 -7.425979e-001 -1.608172e-001 -5.532687e-001 8.087946e-001 -2.077515e-001 7.932466e-001 -2.706425e-002
<VARIANCE> 42
 1.535283e+001 3.319702e+001 5.521154e+001 3.958900e+001 6.466431e+001 7.590202e+001 1.075174e+002 8.799464e+001 6.386209e+001 9.200921e+001 7.739722e+001 7.363740e+001 1.040518e+002 5.118087e-003 2.496908e+000 2.969410e+000 4.878431e+000 4.739912e+000 5.537196e+000 6.717055e+000 6.058971e+000 5.946008e+000 5.439953e+000 7.043223e+000 5.602638e+000 6.333853e+000 6.251938e+000 7.630502e-004 7.113587e-001 5.565805e-001 8.919439e-001 6.148067e-001 9.264281e-001 1.116842e+000 1.624948e+000 1.388673e+000 1.003200e+000 1.192924e+000 1.294435e+000 1.221043e+000 1.098495e+000 2.182115e-004
<GCONST> 1.313008e+002
<MIXTURE> 62 1.190333e-002
<MEAN> 42
 -6.657581e+000 2.987561e+000 7.246881e+000 1.246551e+000 5.653398e-001 3.044189e+000 3.940064e+000 -6.297556e+000 -3.725300e+000 -8.670723e+000 -1.210034e+001 -1.174259e+001 -5.765064e+000 4.355512e-001 -3.248996e+000 -1.430654e+000 -1.309365e+000 -6.732844e-001 1.432804e+000 -9.148030e-001 -1.685992e-001 2.065825e+000 8.462366e-001 9.504901e-001 2.595806e+000 1.275611e+000 9.521810e-001 -8.520565e-002 -2.302298e-001 -5.770098e-001 -7.078980e-001 -8.560855e-001 -6.500560e-001 -4.953602e-001 -4.403771e-001 -3.360299e-001 1.264288e-001 4.135476e-001 5.437730e-001 7.604734e-001 2.944829e-001 1.065749e-002
<VARIANCE> 42
 4.008615e+001 4.218642e+001 5.493248e+001 6.047302e+001 6.416555e+001 5.420079e+001 5.675909e+001 7.816467e+001 6.243004e+001 5.786051e+001 5.844489e+001 4.190615e+001 5.098563e+001 4.262231e-002 3.793685e+000 4.355582e+000 8.084275e+000 9.149803e+000 6.910892e+000 7.960279e+000 6.615511e+000 1.018088e+001 7.796812e+000 8.286430e+000 9.451176e+000 7.114745e+000 6.692076e+000 2.920859e-003 7.903693e-001 7.757342e-001 9.781950e-001 1.229226e+000 1.061794e+000 1.155157e+000 1.084519e+000 1.696224e+000 1.117115e+000 1.238616e+000 1.326720e+000 9.082127e-001 9.376660e-001 6.785733e-004
<GCONST> 1.394836e+002
<MIXTURE> 63 1.257359e-002
<MEAN> 42
 4.877805e+000 7.441093e+000 8.789998e+000 -1.522353e+001 -1.455813e+001 9.610500e-001 -6.235776e+000 -2.333933e+000 1.889159e+000 -3.558888e+000 2.039131e+000 -7.743359e+000 1.698593e+000 6.414809e-001 -1.285269e-001 2.257256e-001 1.468199e-001 2.784837e-001 2.080603e-001 -1.040680e-001 2.761598e-003 -6.995395e-002 2.134294e-002 1.369298e-001 -8.420397e-002 1.101786e-001 6.478789e-002 -9.265744e-003 -2.038228e-002 -1.546715e-001 -2.597681e-001 1.431318e-001 2.110669e-001 1.432093e-001 2.961279e-001 1.917472e-002 -2.742252e-001 -1.012616e-001 -9.998176e-002 1.714874e-001 1.256032e-001 -1.497680e-003
<VARIANCE> 42
 2.029244e+001 1.104758e+002 5.795249e+001 9.688297e+001 6.688786e+001 7.373245e+001 6.866422e+001 5.815307e+001 5.282154e+001 6.176003e+001 5.606095e+001 3.992213e+001 6.386176e+001 1.440963e-002 2.589580e-001 1.128439e+000 1.352039e+000 1.388301e+000 1.484764e+000 1.458944e+000 1.823344e+000 1.947032e+000 1.692288e+000 1.805167e+000 1.950120e+000 1.551486e+000 1.904658e+000 2.698184e-004 6.181232e-002 2.279673e-001 2.521960e-001 2.536679e-001 2.805965e-001 2.765853e-001 2.819560e-001 3.627480e-001 3.290398e-001 4.006024e-001 3.706724e-001 2.919702e-001 3.710639e-001 4.207941e-005
<GCONST> 9.498011e+001
<MIXTURE> 64 1.656534e-002
<MEAN> 42
 -3.782734e+000 -7.653966e+000 1.808511e+001 -3.114655e+000 -1.392718e+001 -8.182603e+000 -5.204708e+000 -2.364561e-001 -7.886859e+000 -1.592852e+000 2.823220e+000 -5.401500e-001 5.319392e+000 7.246538e-001 6.503928e-001 -7.157657e-001 -1.694039e+000 -2.367136e-002 3.245682e-001 -9.422471e-001 1.346313e-001 1.441217e+000 9.434140e-001 7.240376e-001 7.882198e-002 5.019588e-001 2.241184e-001 -4.338616e-003 2.891017e-002 2.516672e-001 -5.306916e-001 1.454513e-001 8.994616e-001 3.613126e-001 3.463341e-002 -9.959204e-002 4.903194e-001 -9.199178e-002 -4.185229e-001 -2.991792e-001 -2.448781e-001 -6.625735e-003
<VARIANCE> 42
 1.416415e+001 3.845740e+001 3.309654e+001 6.216949e+001 4.253865e+001 6.094224e+001 8.316550e+001 9.185590e+001 9.012360e+001 8.851589e+001 6.552203e+001 5.865348e+001 6.918017e+001 7.749844e-003 8.817906e-001 1.918225e+000 4.143062e+000 3.115954e+000 3.691226e+000 3.372441e+000 3.855166e+000 4.862645e+000 5.617027e+000 4.392295e+000 3.741546e+000 3.206676e+000 3.869452e+000 4.039525e-004 1.848169e-001 2.745815e-001 4.117360e-001 4.980842e-001 4.269949e-001 6.473675e-001 7.616104e-001 8.002499e-001 8.580344e-001 8.268029e-001 5.703477e-001 6.231838e-001 5.720471e-001 5.686863e-005
<GCONST> 1.142450e+002
<TRANSP> 3
 0.000000e+000 1.000000e+000 0.000000e+000
 0.000000e+000 5.000000e-001 5.000000e-001
 0.000000e+000 0.000000e+000 0.000000e+000
<ENDHMM>
